digraph Tree {
node [shape=box, style="filled", color="black", fontname="helvetica"] ;
edge [fontname="helvetica"] ;
0 [label="alcohol <= 10.625\nentropy = 0.935\nsamples = 5197\nvalue = [197, 3979, 1021]\nclass = Standard quality", fillcolor="#73eda6"] ;
1 [label="volatile_acidity <= 0.233\nentropy = 0.653\nsamples = 3107\nvalue = [138.0, 2726.0, 243.0]\nclass = Standard quality", fillcolor="#53e892"] ;
0 -> 1 [labeldistance=2.5, labelangle=45, headlabel="True"] ;
2 [label="fixed_acidity <= 8.45\nentropy = 0.812\nsamples = 859\nvalue = [18, 690, 151]\nclass = Standard quality", fillcolor="#68eb9f"] ;
1 -> 2 ;
3 [label="entropy = 0.766\nsamples = 800\nvalue = [8, 645, 147]\nclass = Standard quality", fillcolor="#68eb9f"] ;
2 -> 3 ;
4 [label="entropy = 0.995\nsamples = 59\nvalue = [10, 45, 4]\nclass = Standard quality", fillcolor="#72eca5"] ;
2 -> 4 ;
5 [label="alcohol <= 9.85\nentropy = 0.544\nsamples = 2248\nvalue = [120, 2036, 92]\nclass = Standard quality", fillcolor="#4de88e"] ;
1 -> 5 ;
6 [label="entropy = 0.413\nsamples = 1496\nvalue = [74, 1395, 27]\nclass = Standard quality", fillcolor="#47e78a"] ;
5 -> 6 ;
7 [label="entropy = 0.748\nsamples = 752\nvalue = [46, 641, 65]\nclass = Standard quality", fillcolor="#59e995"] ;
5 -> 7 ;
8 [label="alcohol <= 11.575\nentropy = 1.119\nsamples = 2090\nvalue = [59, 1253, 778]\nclass = Standard quality", fillcolor="#b7f6d1"] ;
0 -> 8 [labeldistance=2.5, labelangle=-45, headlabel="False"] ;
9 [label="citric_acid <= 0.225\nentropy = 1.057\nsamples = 1055\nvalue = [41, 732, 282]\nclass = Standard quality", fillcolor="#8cf0b6"] ;
8 -> 9 ;
10 [label="entropy = 0.857\nsamples = 159\nvalue = [22, 129, 8]\nclass = Standard quality", fillcolor="#64eb9d"] ;
9 -> 10 ;
11 [label="entropy = 1.025\nsamples = 896\nvalue = [19, 603, 274]\nclass = Standard quality", fillcolor="#96f1bc"] ;
9 -> 11 ;
12 [label="free_sulfur_dioxide <= 19.5\nentropy = 1.109\nsamples = 1035\nvalue = [18, 521, 496]\nclass = Standard quality", fillcolor="#f6fef9"] ;
8 -> 12 ;
13 [label="entropy = 1.224\nsamples = 338\nvalue = [18, 189, 131]\nclass = Standard quality", fillcolor="#c8f8dc"] ;
12 -> 13 ;
14 [label="entropy = 0.998\nsamples = 697\nvalue = [0, 332, 365]\nclass = High quality", fillcolor="#f4edfd"] ;
12 -> 14 ;
}