digraph Tree {
node [shape=box, style="filled", color="black", fontname="helvetica"] ;
edge [fontname="helvetica"] ;
0 [label="alcohol <= 10.625\nentropy = 0.935\nsamples = 5197\nvalue = [197, 3979, 1021]\nclass = Standard quality", fillcolor="#73eda6"] ;
1 [label="volatile_acidity <= 0.233\nentropy = 0.653\nsamples = 3107\nvalue = [138.0, 2726.0, 243.0]\nclass = Standard quality", fillcolor="#53e892"] ;
0 -> 1 [labeldistance=2.5, labelangle=45, headlabel="True"] ;
2 [label="fixed_acidity <= 8.45\nentropy = 0.812\nsamples = 859\nvalue = [18, 690, 151]\nclass = Standard quality", fillcolor="#68eb9f"] ;
1 -> 2 ;
3 [label="pH <= 3.025\nentropy = 0.766\nsamples = 800\nvalue = [8, 645, 147]\nclass = Standard quality", fillcolor="#68eb9f"] ;
2 -> 3 ;
4 [label="density <= 0.998\nentropy = 1.054\nsamples = 128\nvalue = [2, 79, 47]\nclass = Standard quality", fillcolor="#b1f5cd"] ;
3 -> 4 ;
5 [label="entropy = 0.702\nsamples = 69\nvalue = [2, 59, 8]\nclass = Standard quality", fillcolor="#59e996"] ;
4 -> 5 ;
6 [label="entropy = 0.924\nsamples = 59\nvalue = [0, 20, 39]\nclass = High quality", fillcolor="#c29ff2"] ;
4 -> 6 ;
7 [label="residual_sugar <= 15.575\nentropy = 0.678\nsamples = 672\nvalue = [6, 566, 100]\nclass = Standard quality", fillcolor="#5eea98"] ;
3 -> 7 ;
8 [label="entropy = 0.72\nsamples = 606\nvalue = [6, 501, 99]\nclass = Standard quality", fillcolor="#62ea9b"] ;
7 -> 8 ;
9 [label="entropy = 0.113\nsamples = 66\nvalue = [0, 65, 1]\nclass = Standard quality", fillcolor="#3ce583"] ;
7 -> 9 ;
10 [label="density <= 1.0\nentropy = 0.995\nsamples = 59\nvalue = [10, 45, 4]\nclass = Standard quality", fillcolor="#72eca5"] ;
2 -> 10 ;
11 [label="residual_sugar <= 10.9\nentropy = 0.828\nsamples = 53\nvalue = [10, 42, 1]\nclass = Standard quality", fillcolor="#6ceca1"] ;
10 -> 11 ;
12 [label="entropy = 0.68\nsamples = 50\nvalue = [9, 41, 0]\nclass = Standard quality", fillcolor="#64eb9d"] ;
11 -> 12 ;
13 [label="entropy = 1.585\nsamples = 3\nvalue = [1, 1, 1]\nclass = Low quality", fillcolor="#ffffff"] ;
11 -> 13 ;
14 [label="residual_sugar <= 14.2\nentropy = 1.0\nsamples = 6\nvalue = [0, 3, 3]\nclass = Standard quality", fillcolor="#ffffff"] ;
10 -> 14 ;
15 [label="entropy = 0.0\nsamples = 3\nvalue = [0, 0, 3]\nclass = High quality", fillcolor="#8139e5"] ;
14 -> 15 ;
16 [label="entropy = 0.0\nsamples = 3\nvalue = [0, 3, 0]\nclass = Standard quality", fillcolor="#39e581"] ;
14 -> 16 ;
17 [label="alcohol <= 9.85\nentropy = 0.544\nsamples = 2248\nvalue = [120, 2036, 92]\nclass = Standard quality", fillcolor="#4de88e"] ;
1 -> 17 ;
18 [label="residual_sugar <= 13.05\nentropy = 0.413\nsamples = 1496\nvalue = [74, 1395, 27]\nclass = Standard quality", fillcolor="#47e78a"] ;
17 -> 18 ;
19 [label="residual_sugar <= 1.625\nentropy = 0.349\nsamples = 1260\nvalue = [67, 1186, 7]\nclass = Standard quality", fillcolor="#45e789"] ;
18 -> 19 ;
20 [label="entropy = 0.535\nsamples = 172\nvalue = [21, 151, 0]\nclass = Standard quality", fillcolor="#55e993"] ;
19 -> 20 ;
21 [label="entropy = 0.308\nsamples = 1088\nvalue = [46, 1035, 7]\nclass = Standard quality", fillcolor="#43e687"] ;
19 -> 21 ;
22 [label="total_sulfur_dioxide <= 161.5\nentropy = 0.608\nsamples = 236\nvalue = [7, 209, 20]\nclass = Standard quality", fillcolor="#52e891"] ;
18 -> 22 ;
23 [label="entropy = 0.0\nsamples = 64\nvalue = [0, 64, 0]\nclass = Standard quality", fillcolor="#39e581"] ;
22 -> 23 ;
24 [label="entropy = 0.757\nsamples = 172\nvalue = [7.0, 145.0, 20.0]\nclass = Standard quality", fillcolor="#5cea97"] ;
22 -> 24 ;
25 [label="residual_sugar <= 1.85\nentropy = 0.748\nsamples = 752\nvalue = [46, 641, 65]\nclass = Standard quality", fillcolor="#59e995"] ;
17 -> 25 ;
26 [label="sulphates <= 0.465\nentropy = 1.076\nsamples = 211\nvalue = [26.0, 157.0, 28.0]\nclass = Standard quality", fillcolor="#73eda6"] ;
25 -> 26 ;
27 [label="entropy = 0.554\nsamples = 70\nvalue = [9, 61, 0]\nclass = Standard quality", fillcolor="#56e994"] ;
26 -> 27 ;
28 [label="entropy = 1.209\nsamples = 141\nvalue = [17, 96, 28]\nclass = Standard quality", fillcolor="#88efb3"] ;
26 -> 28 ;
29 [label="sulphates <= 0.635\nentropy = 0.584\nsamples = 541\nvalue = [20, 484, 37]\nclass = Standard quality", fillcolor="#4fe88f"] ;
25 -> 29 ;
30 [label="entropy = 0.507\nsamples = 397\nvalue = [17, 363, 17]\nclass = Standard quality", fillcolor="#4be78c"] ;
29 -> 30 ;
31 [label="entropy = 0.723\nsamples = 144\nvalue = [3, 121, 20]\nclass = Standard quality", fillcolor="#5eea98"] ;
29 -> 31 ;
32 [label="alcohol <= 11.575\nentropy = 1.119\nsamples = 2090\nvalue = [59, 1253, 778]\nclass = Standard quality", fillcolor="#b7f6d1"] ;
0 -> 32 [labeldistance=2.5, labelangle=-45, headlabel="False"] ;
33 [label="citric_acid <= 0.225\nentropy = 1.057\nsamples = 1055\nvalue = [41, 732, 282]\nclass = Standard quality", fillcolor="#8cf0b6"] ;
32 -> 33 ;
34 [label="volatile_acidity <= 1.0\nentropy = 0.857\nsamples = 159\nvalue = [22, 129, 8]\nclass = Standard quality", fillcolor="#64eb9d"] ;
33 -> 34 ;
35 [label="free_sulfur_dioxide <= 8.5\nentropy = 0.774\nsamples = 152\nvalue = [16, 128, 8]\nclass = Standard quality", fillcolor="#5cea97"] ;
34 -> 35 ;
36 [label="entropy = 0.877\nsamples = 27\nvalue = [8, 19, 0]\nclass = Standard quality", fillcolor="#8cf0b6"] ;
35 -> 36 ;
37 [label="entropy = 0.68\nsamples = 125\nvalue = [8, 109, 8]\nclass = Standard quality", fillcolor="#54e992"] ;
35 -> 37 ;
38 [label="volatile_acidity <= 1.257\nentropy = 0.592\nsamples = 7\nvalue = [6, 1, 0]\nclass = Low quality", fillcolor="#e9965a"] ;
34 -> 38 ;
39 [label="entropy = 0.0\nsamples = 6\nvalue = [6, 0, 0]\nclass = Low quality", fillcolor="#e58139"] ;
38 -> 39 ;
40 [label="entropy = 0.0\nsamples = 1\nvalue = [0, 1, 0]\nclass = Standard quality", fillcolor="#39e581"] ;
38 -> 40 ;
41 [label="fixed_acidity <= 6.95\nentropy = 1.025\nsamples = 896\nvalue = [19, 603, 274]\nclass = Standard quality", fillcolor="#96f1bc"] ;
33 -> 41 ;
42 [label="free_sulfur_dioxide <= 11.5\nentropy = 1.042\nsamples = 426\nvalue = [5, 259, 162]\nclass = Standard quality", fillcolor="#b6f5d1"] ;
41 -> 42 ;
43 [label="entropy = 1.081\nsamples = 27\nvalue = [4, 20, 3]\nclass = Standard quality", fillcolor="#75eda7"] ;
42 -> 43 ;
44 [label="entropy = 0.993\nsamples = 399\nvalue = [1, 239, 159]\nclass = Standard quality", fillcolor="#bdf6d5"] ;
42 -> 44 ;
45 [label="residual_sugar <= 1.075\nentropy = 0.974\nsamples = 470\nvalue = [14, 344, 112]\nclass = Standard quality", fillcolor="#7feead"] ;
41 -> 45 ;
46 [label="entropy = 0.672\nsamples = 17\nvalue = [3, 14, 0]\nclass = Standard quality", fillcolor="#63eb9c"] ;
45 -> 46 ;
47 [label="entropy = 0.962\nsamples = 453\nvalue = [11, 330, 112]\nclass = Standard quality", fillcolor="#80eeae"] ;
45 -> 47 ;
48 [label="free_sulfur_dioxide <= 19.5\nentropy = 1.109\nsamples = 1035\nvalue = [18, 521, 496]\nclass = Standard quality", fillcolor="#f6fef9"] ;
32 -> 48 ;
49 [label="sulphates <= 0.685\nentropy = 1.224\nsamples = 338\nvalue = [18, 189, 131]\nclass = Standard quality", fillcolor="#c8f8dc"] ;
48 -> 49 ;
50 [label="chlorides <= 0.057\nentropy = 1.187\nsamples = 245\nvalue = [17, 159, 69]\nclass = Standard quality", fillcolor="#9af2bf"] ;
49 -> 50 ;
51 [label="entropy = 1.299\nsamples = 167\nvalue = [17.0, 100.0, 50.0]\nclass = Standard quality", fillcolor="#aaf4c9"] ;
50 -> 51 ;
52 [label="entropy = 0.801\nsamples = 78\nvalue = [0, 59, 19]\nclass = Standard quality", fillcolor="#79edaa"] ;
50 -> 52 ;
53 [label="fixed_acidity <= 5.85\nentropy = 0.987\nsamples = 93\nvalue = [1, 30, 62]\nclass = High quality", fillcolor="#bf9af2"] ;
49 -> 53 ;
54 [label="entropy = 0.0\nsamples = 15\nvalue = [0, 0, 15]\nclass = High quality", fillcolor="#8139e5"] ;
53 -> 54 ;
55 [label="entropy = 1.051\nsamples = 78\nvalue = [1, 30, 47]\nclass = High quality", fillcolor="#d2b9f6"] ;
53 -> 55 ;
56 [label="alcohol <= 12.55\nentropy = 0.998\nsamples = 697\nvalue = [0, 332, 365]\nclass = High quality", fillcolor="#f4edfd"] ;
48 -> 56 ;
57 [label="residual_sugar <= 1.225\nentropy = 0.996\nsamples = 468\nvalue = [0, 252, 216]\nclass = Standard quality", fillcolor="#e3fbed"] ;
56 -> 57 ;
58 [label="entropy = 0.615\nsamples = 46\nvalue = [0, 39, 7]\nclass = Standard quality", fillcolor="#5dea98"] ;
57 -> 58 ;
59 [label="entropy = 1.0\nsamples = 422\nvalue = [0.0, 213.0, 209.0]\nclass = Standard quality", fillcolor="#fbfffd"] ;
57 -> 59 ;
60 [label="chlorides <= 0.046\nentropy = 0.933\nsamples = 229\nvalue = [0, 80, 149]\nclass = High quality", fillcolor="#c5a3f3"] ;
56 -> 60 ;
61 [label="entropy = 0.86\nsamples = 201\nvalue = [0, 57, 144]\nclass = High quality", fillcolor="#b387ef"] ;
60 -> 61 ;
62 [label="entropy = 0.677\nsamples = 28\nvalue = [0, 23, 5]\nclass = Standard quality", fillcolor="#64eb9c"] ;
60 -> 62 ;
}