digraph Tree {
node [shape=box, style="filled", color="black", fontname="helvetica"] ;
edge [fontname="helvetica"] ;
0 [label="alcohol <= 10.625\nentropy = 0.935\nsamples = 5197\nvalue = [197, 3979, 1021]\nclass = Standard quality", fillcolor="#73eda6"] ;
1 [label="volatile_acidity <= 0.215\nentropy = 0.656\nsamples = 3101\nvalue = [139.0, 2718.0, 244.0]\nclass = Standard quality", fillcolor="#54e892"] ;
0 -> 1 [labeldistance=2.5, labelangle=45, headlabel="True"] ;
2 [label="density <= 0.998\nentropy = 0.885\nsamples = 626\nvalue = [13, 480, 133]\nclass = Standard quality", fillcolor="#74eda6"] ;
1 -> 2 ;
3 [label="sulphates <= 0.815\nentropy = 0.79\nsamples = 516\nvalue = [13, 422, 81]\nclass = Standard quality", fillcolor="#64eb9c"] ;
2 -> 3 ;
4 [label="fixed_acidity <= 8.25\nentropy = 0.764\nsamples = 509\nvalue = [13, 422, 74]\nclass = Standard quality", fillcolor="#61ea9a"] ;
3 -> 4 ;
5 [label="citric_acid <= 0.235\nentropy = 0.743\nsamples = 458\nvalue = [7, 378, 73]\nclass = Standard quality", fillcolor="#62ea9b"] ;
4 -> 5 ;
6 [label="entropy = 0.0\nsamples = 35\nvalue = [0, 35, 0]\nclass = Standard quality", fillcolor="#39e581"] ;
5 -> 6 ;
7 [label="chlorides <= 0.041\nentropy = 0.781\nsamples = 423\nvalue = [7, 343, 73]\nclass = Standard quality", fillcolor="#66eb9e"] ;
5 -> 7 ;
8 [label="residual_sugar <= 1.45\nentropy = 1.019\nsamples = 123\nvalue = [4, 87, 32]\nclass = Standard quality", fillcolor="#87efb3"] ;
7 -> 8 ;
9 [label="fixed_acidity <= 8.15\nentropy = 0.378\nsamples = 41\nvalue = [0, 38, 3]\nclass = Standard quality", fillcolor="#49e78b"] ;
8 -> 9 ;
10 [label="chlorides <= 0.038\nentropy = 0.172\nsamples = 39\nvalue = [0, 38, 1]\nclass = Standard quality", fillcolor="#3ee684"] ;
9 -> 10 ;
11 [label="entropy = 0.0\nsamples = 34\nvalue = [0, 34, 0]\nclass = Standard quality", fillcolor="#39e581"] ;
10 -> 11 ;
12 [label="pH <= 3.33\nentropy = 0.722\nsamples = 5\nvalue = [0, 4, 1]\nclass = Standard quality", fillcolor="#6aeca0"] ;
10 -> 12 ;
13 [label="entropy = 0.0\nsamples = 4\nvalue = [0, 4, 0]\nclass = Standard quality", fillcolor="#39e581"] ;
12 -> 13 ;
14 [label="entropy = 0.0\nsamples = 1\nvalue = [0, 0, 1]\nclass = High quality", fillcolor="#8139e5"] ;
12 -> 14 ;
15 [label="entropy = 0.0\nsamples = 2\nvalue = [0, 0, 2]\nclass = High quality", fillcolor="#8139e5"] ;
9 -> 15 ;
16 [label="alcohol <= 9.25\nentropy = 1.187\nsamples = 82\nvalue = [4, 49, 29]\nclass = Standard quality", fillcolor="#b4f5cf"] ;
8 -> 16 ;
17 [label="fixed_acidity <= 7.85\nentropy = 0.414\nsamples = 12\nvalue = [1, 11, 0]\nclass = Standard quality", fillcolor="#4be78c"] ;
16 -> 17 ;
18 [label="entropy = 0.0\nsamples = 11\nvalue = [0, 11, 0]\nclass = Standard quality", fillcolor="#39e581"] ;
17 -> 18 ;
19 [label="entropy = 0.0\nsamples = 1\nvalue = [1, 0, 0]\nclass = Low quality", fillcolor="#e58139"] ;
17 -> 19 ;
20 [label="free_sulfur_dioxide <= 27.5\nentropy = 1.2\nsamples = 70\nvalue = [3.0, 38.0, 29.0]\nclass = Standard quality", fillcolor="#d4f9e3"] ;
16 -> 20 ;
21 [label="alcohol <= 10.35\nentropy = 1.264\nsamples = 23\nvalue = [3, 15, 5]\nclass = Standard quality", fillcolor="#91f1b9"] ;
20 -> 21 ;
22 [label="alcohol <= 10.05\nentropy = 0.779\nsamples = 13\nvalue = [3, 10, 0]\nclass = Standard quality", fillcolor="#74eda7"] ;
21 -> 22 ;
23 [label="entropy = 0.0\nsamples = 6\nvalue = [0, 6, 0]\nclass = Standard quality", fillcolor="#39e581"] ;
22 -> 23 ;
24 [label="sulphates <= 0.515\nentropy = 0.985\nsamples = 7\nvalue = [3, 4, 0]\nclass = Standard quality", fillcolor="#cef8e0"] ;
22 -> 24 ;
25 [label="entropy = 0.0\nsamples = 2\nvalue = [2, 0, 0]\nclass = Low quality", fillcolor="#e58139"] ;
24 -> 25 ;
26 [label="sulphates <= 0.625\nentropy = 0.722\nsamples = 5\nvalue = [1, 4, 0]\nclass = Standard quality", fillcolor="#6aeca0"] ;
24 -> 26 ;
27 [label="entropy = 0.0\nsamples = 4\nvalue = [0, 4, 0]\nclass = Standard quality", fillcolor="#39e581"] ;
26 -> 27 ;
28 [label="entropy = 0.0\nsamples = 1\nvalue = [1, 0, 0]\nclass = Low quality", fillcolor="#e58139"] ;
26 -> 28 ;
29 [label="citric_acid <= 0.29\nentropy = 1.0\nsamples = 10\nvalue = [0, 5, 5]\nclass = Standard quality", fillcolor="#ffffff"] ;
21 -> 29 ;
30 [label="entropy = 0.0\nsamples = 4\nvalue = [0, 0, 4]\nclass = High quality", fillcolor="#8139e5"] ;
29 -> 30 ;
31 [label="residual_sugar <= 4.35\nentropy = 0.65\nsamples = 6\nvalue = [0, 5, 1]\nclass = Standard quality", fillcolor="#61ea9a"] ;
29 -> 31 ;
32 [label="volatile_acidity <= 0.185\nentropy = 1.0\nsamples = 2\nvalue = [0, 1, 1]\nclass = Standard quality", fillcolor="#ffffff"] ;
31 -> 32 ;
33 [label="entropy = 0.0\nsamples = 1\nvalue = [0, 0, 1]\nclass = High quality", fillcolor="#8139e5"] ;
32 -> 33 ;
34 [label="entropy = 0.0\nsamples = 1\nvalue = [0, 1, 0]\nclass = Standard quality", fillcolor="#39e581"] ;
32 -> 34 ;
35 [label="entropy = 0.0\nsamples = 4\nvalue = [0, 4, 0]\nclass = Standard quality", fillcolor="#39e581"] ;
31 -> 35 ;
36 [label="chlorides <= 0.034\nentropy = 1.0\nsamples = 47\nvalue = [0.0, 23.0, 24.0]\nclass = High quality", fillcolor="#faf7fe"] ;
20 -> 36 ;
37 [label="entropy = 0.0\nsamples = 7\nvalue = [0, 7, 0]\nclass = Standard quality", fillcolor="#39e581"] ;
36 -> 37 ;
38 [label="sulphates <= 0.555\nentropy = 0.971\nsamples = 40\nvalue = [0, 16, 24]\nclass = High quality", fillcolor="#d5bdf6"] ;
36 -> 38 ;
39 [label="free_sulfur_dioxide <= 45.5\nentropy = 0.983\nsamples = 26\nvalue = [0.0, 15.0, 11.0]\nclass = Standard quality", fillcolor="#caf8dd"] ;
38 -> 39 ;
40 [label="density <= 0.993\nentropy = 0.964\nsamples = 18\nvalue = [0, 7, 11]\nclass = High quality", fillcolor="#d1b7f6"] ;
39 -> 40 ;
41 [label="volatile_acidity <= 0.145\nentropy = 0.722\nsamples = 5\nvalue = [0, 4, 1]\nclass = Standard quality", fillcolor="#6aeca0"] ;
40 -> 41 ;
42 [label="entropy = 0.0\nsamples = 1\nvalue = [0, 0, 1]\nclass = High quality", fillcolor="#8139e5"] ;
41 -> 42 ;
43 [label="entropy = 0.0\nsamples = 4\nvalue = [0, 4, 0]\nclass = Standard quality", fillcolor="#39e581"] ;
41 -> 43 ;
44 [label="citric_acid <= 0.265\nentropy = 0.779\nsamples = 13\nvalue = [0, 3, 10]\nclass = High quality", fillcolor="#a774ed"] ;
40 -> 44 ;
45 [label="entropy = 0.0\nsamples = 2\nvalue = [0, 2, 0]\nclass = Standard quality", fillcolor="#39e581"] ;
44 -> 45 ;
46 [label="volatile_acidity <= 0.205\nentropy = 0.439\nsamples = 11\nvalue = [0, 1, 10]\nclass = High quality", fillcolor="#8e4de8"] ;
44 -> 46 ;
47 [label="entropy = 0.0\nsamples = 10\nvalue = [0, 0, 10]\nclass = High quality", fillcolor="#8139e5"] ;
46 -> 47 ;
48 [label="entropy = 0.0\nsamples = 1\nvalue = [0, 1, 0]\nclass = Standard quality", fillcolor="#39e581"] ;
46 -> 48 ;
49 [label="entropy = 0.0\nsamples = 8\nvalue = [0, 8, 0]\nclass = Standard quality", fillcolor="#39e581"] ;
39 -> 49 ;
50 [label="alcohol <= 10.55\nentropy = 0.371\nsamples = 14\nvalue = [0, 1, 13]\nclass = High quality", fillcolor="#8b48e7"] ;
38 -> 50 ;
51 [label="entropy = 0.0\nsamples = 13\nvalue = [0, 0, 13]\nclass = High quality", fillcolor="#8139e5"] ;
50 -> 51 ;
52 [label="entropy = 0.0\nsamples = 1\nvalue = [0, 1, 0]\nclass = Standard quality", fillcolor="#39e581"] ;
50 -> 52 ;
53 [label="fixed_acidity <= 6.45\nentropy = 0.654\nsamples = 300\nvalue = [3, 256, 41]\nclass = Standard quality", fillcolor="#5be996"] ;
7 -> 53 ;
54 [label="free_sulfur_dioxide <= 68.5\nentropy = 0.48\nsamples = 74\nvalue = [2, 68, 4]\nclass = Standard quality", fillcolor="#4ae78c"] ;
53 -> 54 ;
55 [label="pH <= 3.7\nentropy = 0.355\nsamples = 72\nvalue = [1, 68, 3]\nclass = Standard quality", fillcolor="#44e788"] ;
54 -> 55 ;
56 [label="residual_sugar <= 3.3\nentropy = 0.253\nsamples = 71\nvalue = [0, 68, 3]\nclass = Standard quality", fillcolor="#42e687"] ;
55 -> 56 ;
57 [label="residual_sugar <= 3.0\nentropy = 0.469\nsamples = 30\nvalue = [0, 27, 3]\nclass = Standard quality", fillcolor="#4fe88f"] ;
56 -> 57 ;
58 [label="chlorides <= 0.042\nentropy = 0.362\nsamples = 29\nvalue = [0, 27, 2]\nclass = Standard quality", fillcolor="#48e78a"] ;
57 -> 58 ;
59 [label="entropy = 0.0\nsamples = 1\nvalue = [0, 0, 1]\nclass = High quality", fillcolor="#8139e5"] ;
58 -> 59 ;
60 [label="density <= 0.994\nentropy = 0.222\nsamples = 28\nvalue = [0, 27, 1]\nclass = Standard quality", fillcolor="#40e686"] ;
58 -> 60 ;
61 [label="entropy = 0.0\nsamples = 24\nvalue = [0, 24, 0]\nclass = Standard quality", fillcolor="#39e581"] ;
60 -> 61 ;
62 [label="pH <= 3.335\nentropy = 0.811\nsamples = 4\nvalue = [0, 3, 1]\nclass = Standard quality", fillcolor="#7beeab"] ;
60 -> 62 ;
63 [label="entropy = 0.0\nsamples = 1\nvalue = [0, 0, 1]\nclass = High quality", fillcolor="#8139e5"] ;
62 -> 63 ;
64 [label="entropy = 0.0\nsamples = 3\nvalue = [0, 3, 0]\nclass = Standard quality", fillcolor="#39e581"] ;
62 -> 64 ;
65 [label="entropy = 0.0\nsamples = 1\nvalue = [0, 0, 1]\nclass = High quality", fillcolor="#8139e5"] ;
57 -> 65 ;
66 [label="entropy = 0.0\nsamples = 41\nvalue = [0, 41, 0]\nclass = Standard quality", fillcolor="#39e581"] ;
56 -> 66 ;
67 [label="entropy = 0.0\nsamples = 1\nvalue = [1, 0, 0]\nclass = Low quality", fillcolor="#e58139"] ;
55 -> 67 ;
68 [label="pH <= 2.945\nentropy = 1.0\nsamples = 2\nvalue = [1, 0, 1]\nclass = Low quality", fillcolor="#ffffff"] ;
54 -> 68 ;
69 [label="entropy = 0.0\nsamples = 1\nvalue = [1, 0, 0]\nclass = Low quality", fillcolor="#e58139"] ;
68 -> 69 ;
70 [label="entropy = 0.0\nsamples = 1\nvalue = [0, 0, 1]\nclass = High quality", fillcolor="#8139e5"] ;
68 -> 70 ;
71 [label="density <= 0.994\nentropy = 0.683\nsamples = 226\nvalue = [1, 188, 37]\nclass = Standard quality", fillcolor="#61ea9a"] ;
53 -> 71 ;
72 [label="density <= 0.994\nentropy = 0.982\nsamples = 59\nvalue = [1, 41, 17]\nclass = Standard quality", fillcolor="#8ef0b7"] ;
71 -> 72 ;
73 [label="alcohol <= 9.25\nentropy = 0.913\nsamples = 55\nvalue = [1, 41, 13]\nclass = Standard quality", fillcolor="#7beeab"] ;
72 -> 73 ;
74 [label="entropy = 0.0\nsamples = 12\nvalue = [0, 12, 0]\nclass = Standard quality", fillcolor="#39e581"] ;
73 -> 74 ;
75 [label="alcohol <= 10.15\nentropy = 1.031\nsamples = 43\nvalue = [1, 29, 13]\nclass = Standard quality", fillcolor="#95f1bc"] ;
73 -> 75 ;
76 [label="chlorides <= 0.044\nentropy = 1.236\nsamples = 19\nvalue = [1, 8, 10]\nclass = High quality", fillcolor="#e8dbfa"] ;
75 -> 76 ;
77 [label="fixed_acidity <= 7.0\nentropy = 0.722\nsamples = 5\nvalue = [1, 4, 0]\nclass = Standard quality", fillcolor="#6aeca0"] ;
76 -> 77 ;
78 [label="entropy = 0.0\nsamples = 1\nvalue = [1, 0, 0]\nclass = Low quality", fillcolor="#e58139"] ;
77 -> 78 ;
79 [label="entropy = 0.0\nsamples = 4\nvalue = [0, 4, 0]\nclass = Standard quality", fillcolor="#39e581"] ;
77 -> 79 ;
80 [label="free_sulfur_dioxide <= 44.0\nentropy = 0.863\nsamples = 14\nvalue = [0, 4, 10]\nclass = High quality", fillcolor="#b388ef"] ;
76 -> 80 ;
81 [label="pH <= 3.135\nentropy = 0.991\nsamples = 9\nvalue = [0, 4, 5]\nclass = High quality", fillcolor="#e6d7fa"] ;
80 -> 81 ;
82 [label="entropy = 0.0\nsamples = 2\nvalue = [0, 2, 0]\nclass = Standard quality", fillcolor="#39e581"] ;
81 -> 82 ;
83 [label="fixed_acidity <= 7.5\nentropy = 0.863\nsamples = 7\nvalue = [0, 2, 5]\nclass = High quality", fillcolor="#b388ef"] ;
81 -> 83 ;
84 [label="entropy = 0.0\nsamples = 4\nvalue = [0, 0, 4]\nclass = High quality", fillcolor="#8139e5"] ;
83 -> 84 ;
85 [label="fixed_acidity <= 7.8\nentropy = 0.918\nsamples = 3\nvalue = [0, 2, 1]\nclass = Standard quality", fillcolor="#9cf2c0"] ;
83 -> 85 ;
86 [label="entropy = 0.0\nsamples = 2\nvalue = [0, 2, 0]\nclass = Standard quality", fillcolor="#39e581"] ;
85 -> 86 ;
87 [label="entropy = 0.0\nsamples = 1\nvalue = [0, 0, 1]\nclass = High quality", fillcolor="#8139e5"] ;
85 -> 87 ;
88 [label="entropy = 0.0\nsamples = 5\nvalue = [0, 0, 5]\nclass = High quality", fillcolor="#8139e5"] ;
80 -> 88 ;
89 [label="total_sulfur_dioxide <= 98.0\nentropy = 0.544\nsamples = 24\nvalue = [0, 21, 3]\nclass = Standard quality", fillcolor="#55e993"] ;
75 -> 89 ;
90 [label="citric_acid <= 0.39\nentropy = 0.918\nsamples = 3\nvalue = [0, 1, 2]\nclass = High quality", fillcolor="#c09cf2"] ;
89 -> 90 ;
91 [label="entropy = 0.0\nsamples = 2\nvalue = [0, 0, 2]\nclass = High quality", fillcolor="#8139e5"] ;
90 -> 91 ;
92 [label="entropy = 0.0\nsamples = 1\nvalue = [0, 1, 0]\nclass = Standard quality", fillcolor="#39e581"] ;
90 -> 92 ;
93 [label="sulphates <= 0.64\nentropy = 0.276\nsamples = 21\nvalue = [0, 20, 1]\nclass = Standard quality", fillcolor="#43e687"] ;
89 -> 93 ;
94 [label="entropy = 0.0\nsamples = 18\nvalue = [0, 18, 0]\nclass = Standard quality", fillcolor="#39e581"] ;
93 -> 94 ;
95 [label="chlorides <= 0.043\nentropy = 0.918\nsamples = 3\nvalue = [0, 2, 1]\nclass = Standard quality", fillcolor="#9cf2c0"] ;
93 -> 95 ;
96 [label="entropy = 0.0\nsamples = 1\nvalue = [0, 0, 1]\nclass = High quality", fillcolor="#8139e5"] ;
95 -> 96 ;
97 [label="entropy = 0.0\nsamples = 2\nvalue = [0, 2, 0]\nclass = Standard quality", fillcolor="#39e581"] ;
95 -> 97 ;
98 [label="entropy = 0.0\nsamples = 4\nvalue = [0, 0, 4]\nclass = High quality", fillcolor="#8139e5"] ;
72 -> 98 ;
99 [label="chlorides <= 0.12\nentropy = 0.529\nsamples = 167\nvalue = [0, 147, 20]\nclass = Standard quality", fillcolor="#54e992"] ;
71 -> 99 ;
100 [label="alcohol <= 9.05\nentropy = 0.497\nsamples = 165\nvalue = [0, 147, 18]\nclass = Standard quality", fillcolor="#51e890"] ;
99 -> 100 ;
101 [label="density <= 0.997\nentropy = 1.0\nsamples = 8\nvalue = [0, 4, 4]\nclass = Standard quality", fillcolor="#ffffff"] ;
100 -> 101 ;
102 [label="entropy = 0.0\nsamples = 4\nvalue = [0, 0, 4]\nclass = High quality", fillcolor="#8139e5"] ;
101 -> 102 ;
103 [label="entropy = 0.0\nsamples = 4\nvalue = [0, 4, 0]\nclass = Standard quality", fillcolor="#39e581"] ;
101 -> 103 ;
104 [label="residual_sugar <= 4.55\nentropy = 0.434\nsamples = 157\nvalue = [0.0, 143.0, 14.0]\nclass = Standard quality", fillcolor="#4ce88d"] ;
100 -> 104 ;
105 [label="entropy = 0.0\nsamples = 34\nvalue = [0, 34, 0]\nclass = Standard quality", fillcolor="#39e581"] ;
104 -> 105 ;
106 [label="sulphates <= 0.395\nentropy = 0.511\nsamples = 123\nvalue = [0, 109, 14]\nclass = Standard quality", fillcolor="#52e891"] ;
104 -> 106 ;
107 [label="entropy = 0.0\nsamples = 29\nvalue = [0, 29, 0]\nclass = Standard quality", fillcolor="#39e581"] ;
106 -> 107 ;
108 [label="volatile_acidity <= 0.113\nentropy = 0.607\nsamples = 94\nvalue = [0, 80, 14]\nclass = Standard quality", fillcolor="#5cea97"] ;
106 -> 108 ;
109 [label="entropy = 0.0\nsamples = 3\nvalue = [0, 0, 3]\nclass = High quality", fillcolor="#8139e5"] ;
108 -> 109 ;
110 [label="total_sulfur_dioxide <= 168.0\nentropy = 0.532\nsamples = 91\nvalue = [0, 80, 11]\nclass = Standard quality", fillcolor="#54e992"] ;
108 -> 110 ;
111 [label="volatile_acidity <= 0.195\nentropy = 0.691\nsamples = 54\nvalue = [0, 44, 10]\nclass = Standard quality", fillcolor="#66eb9e"] ;
110 -> 111 ;
112 [label="volatile_acidity <= 0.16\nentropy = 0.477\nsamples = 39\nvalue = [0, 35, 4]\nclass = Standard quality", fillcolor="#50e88f"] ;
111 -> 112 ;
113 [label="sulphates <= 0.515\nentropy = 0.787\nsamples = 17\nvalue = [0, 13, 4]\nclass = Standard quality", fillcolor="#76eda8"] ;
112 -> 113 ;
114 [label="chlorides <= 0.057\nentropy = 0.567\nsamples = 15\nvalue = [0, 13, 2]\nclass = Standard quality", fillcolor="#57e994"] ;
113 -> 114 ;
115 [label="entropy = 0.0\nsamples = 12\nvalue = [0, 12, 0]\nclass = Standard quality", fillcolor="#39e581"] ;
114 -> 115 ;
116 [label="alcohol <= 10.25\nentropy = 0.918\nsamples = 3\nvalue = [0, 1, 2]\nclass = High quality", fillcolor="#c09cf2"] ;
114 -> 116 ;
117 [label="entropy = 0.0\nsamples = 2\nvalue = [0, 0, 2]\nclass = High quality", fillcolor="#8139e5"] ;
116 -> 117 ;
118 [label="entropy = 0.0\nsamples = 1\nvalue = [0, 1, 0]\nclass = Standard quality", fillcolor="#39e581"] ;
116 -> 118 ;
119 [label="entropy = 0.0\nsamples = 2\nvalue = [0, 0, 2]\nclass = High quality", fillcolor="#8139e5"] ;
113 -> 119 ;
120 [label="entropy = 0.0\nsamples = 22\nvalue = [0, 22, 0]\nclass = Standard quality", fillcolor="#39e581"] ;
112 -> 120 ;
121 [label="density <= 0.995\nentropy = 0.971\nsamples = 15\nvalue = [0, 9, 6]\nclass = Standard quality", fillcolor="#bdf6d5"] ;
111 -> 121 ;
122 [label="citric_acid <= 0.26\nentropy = 0.722\nsamples = 5\nvalue = [0, 1, 4]\nclass = High quality", fillcolor="#a06aec"] ;
121 -> 122 ;
123 [label="entropy = 0.0\nsamples = 1\nvalue = [0, 1, 0]\nclass = Standard quality", fillcolor="#39e581"] ;
122 -> 123 ;
124 [label="entropy = 0.0\nsamples = 4\nvalue = [0, 0, 4]\nclass = High quality", fillcolor="#8139e5"] ;
122 -> 124 ;
125 [label="pH <= 2.935\nentropy = 0.722\nsamples = 10\nvalue = [0, 8, 2]\nclass = Standard quality", fillcolor="#6aeca0"] ;
121 -> 125 ;
126 [label="entropy = 0.0\nsamples = 2\nvalue = [0, 0, 2]\nclass = High quality", fillcolor="#8139e5"] ;
125 -> 126 ;
127 [label="entropy = 0.0\nsamples = 8\nvalue = [0, 8, 0]\nclass = Standard quality", fillcolor="#39e581"] ;
125 -> 127 ;
128 [label="fixed_acidity <= 7.95\nentropy = 0.179\nsamples = 37\nvalue = [0, 36, 1]\nclass = Standard quality", fillcolor="#3ee684"] ;
110 -> 128 ;
129 [label="entropy = 0.0\nsamples = 36\nvalue = [0, 36, 0]\nclass = Standard quality", fillcolor="#39e581"] ;
128 -> 129 ;
130 [label="entropy = 0.0\nsamples = 1\nvalue = [0, 0, 1]\nclass = High quality", fillcolor="#8139e5"] ;
128 -> 130 ;
131 [label="entropy = 0.0\nsamples = 2\nvalue = [0, 0, 2]\nclass = High quality", fillcolor="#8139e5"] ;
99 -> 131 ;
132 [label="sulphates <= 0.365\nentropy = 0.658\nsamples = 51\nvalue = [6, 44, 1]\nclass = Standard quality", fillcolor="#58e995"] ;
4 -> 132 ;
133 [label="pH <= 2.9\nentropy = 1.281\nsamples = 12\nvalue = [4, 7, 1]\nclass = Standard quality", fillcolor="#b5f5d0"] ;
132 -> 133 ;
134 [label="entropy = 0.0\nsamples = 3\nvalue = [3, 0, 0]\nclass = Low quality", fillcolor="#e58139"] ;
133 -> 134 ;
135 [label="density <= 0.992\nentropy = 0.986\nsamples = 9\nvalue = [1, 7, 1]\nclass = Standard quality", fillcolor="#6aeca0"] ;
133 -> 135 ;
136 [label="free_sulfur_dioxide <= 25.5\nentropy = 1.0\nsamples = 2\nvalue = [1, 0, 1]\nclass = Low quality", fillcolor="#ffffff"] ;
135 -> 136 ;
137 [label="entropy = 0.0\nsamples = 1\nvalue = [0, 0, 1]\nclass = High quality", fillcolor="#8139e5"] ;
136 -> 137 ;
138 [label="entropy = 0.0\nsamples = 1\nvalue = [1, 0, 0]\nclass = Low quality", fillcolor="#e58139"] ;
136 -> 138 ;
139 [label="entropy = 0.0\nsamples = 7\nvalue = [0, 7, 0]\nclass = Standard quality", fillcolor="#39e581"] ;
135 -> 139 ;
140 [label="alcohol <= 9.05\nentropy = 0.292\nsamples = 39\nvalue = [2, 37, 0]\nclass = Standard quality", fillcolor="#44e688"] ;
132 -> 140 ;
141 [label="entropy = 0.0\nsamples = 1\nvalue = [1, 0, 0]\nclass = Low quality", fillcolor="#e58139"] ;
140 -> 141 ;
142 [label="citric_acid <= 0.485\nentropy = 0.176\nsamples = 38\nvalue = [1, 37, 0]\nclass = Standard quality", fillcolor="#3ee684"] ;
140 -> 142 ;
143 [label="entropy = 0.0\nsamples = 28\nvalue = [0, 28, 0]\nclass = Standard quality", fillcolor="#39e581"] ;
142 -> 143 ;
144 [label="fixed_acidity <= 8.9\nentropy = 0.469\nsamples = 10\nvalue = [1, 9, 0]\nclass = Standard quality", fillcolor="#4fe88f"] ;
142 -> 144 ;
145 [label="entropy = 0.0\nsamples = 7\nvalue = [0, 7, 0]\nclass = Standard quality", fillcolor="#39e581"] ;
144 -> 145 ;
146 [label="pH <= 3.06\nentropy = 0.918\nsamples = 3\nvalue = [1, 2, 0]\nclass = Standard quality", fillcolor="#9cf2c0"] ;
144 -> 146 ;
147 [label="entropy = 0.0\nsamples = 2\nvalue = [0, 2, 0]\nclass = Standard quality", fillcolor="#39e581"] ;
146 -> 147 ;
148 [label="entropy = 0.0\nsamples = 1\nvalue = [1, 0, 0]\nclass = Low quality", fillcolor="#e58139"] ;
146 -> 148 ;
149 [label="entropy = 0.0\nsamples = 7\nvalue = [0, 0, 7]\nclass = High quality", fillcolor="#8139e5"] ;
3 -> 149 ;
150 [label="citric_acid <= 0.305\nentropy = 0.998\nsamples = 110\nvalue = [0.0, 58.0, 52.0]\nclass = Standard quality", fillcolor="#ebfcf2"] ;
2 -> 150 ;
151 [label="chlorides <= 0.048\nentropy = 0.744\nsamples = 52\nvalue = [0, 11, 41]\nclass = High quality", fillcolor="#a36eec"] ;
150 -> 151 ;
152 [label="entropy = 0.0\nsamples = 9\nvalue = [0, 9, 0]\nclass = Standard quality", fillcolor="#39e581"] ;
151 -> 152 ;
153 [label="fixed_acidity <= 6.7\nentropy = 0.271\nsamples = 43\nvalue = [0, 2, 41]\nclass = High quality", fillcolor="#8743e6"] ;
151 -> 153 ;
154 [label="entropy = 0.0\nsamples = 2\nvalue = [0, 2, 0]\nclass = Standard quality", fillcolor="#39e581"] ;
153 -> 154 ;
155 [label="entropy = 0.0\nsamples = 41\nvalue = [0, 0, 41]\nclass = High quality", fillcolor="#8139e5"] ;
153 -> 155 ;
156 [label="density <= 1.0\nentropy = 0.701\nsamples = 58\nvalue = [0, 47, 11]\nclass = Standard quality", fillcolor="#67eb9e"] ;
150 -> 156 ;
157 [label="density <= 0.998\nentropy = 0.216\nsamples = 29\nvalue = [0, 28, 1]\nclass = Standard quality", fillcolor="#40e686"] ;
156 -> 157 ;
158 [label="entropy = 0.0\nsamples = 1\nvalue = [0, 0, 1]\nclass = High quality", fillcolor="#8139e5"] ;
157 -> 158 ;
159 [label="entropy = 0.0\nsamples = 28\nvalue = [0, 28, 0]\nclass = Standard quality", fillcolor="#39e581"] ;
157 -> 159 ;
160 [label="volatile_acidity <= 0.175\nentropy = 0.929\nsamples = 29\nvalue = [0, 19, 10]\nclass = Standard quality", fillcolor="#a1f3c3"] ;
156 -> 160 ;
161 [label="entropy = 0.0\nsamples = 3\nvalue = [0, 0, 3]\nclass = High quality", fillcolor="#8139e5"] ;
160 -> 161 ;
162 [label="total_sulfur_dioxide <= 168.5\nentropy = 0.84\nsamples = 26\nvalue = [0, 19, 7]\nclass = Standard quality", fillcolor="#82efaf"] ;
160 -> 162 ;
163 [label="fixed_acidity <= 6.85\nentropy = 0.997\nsamples = 15\nvalue = [0, 8, 7]\nclass = Standard quality", fillcolor="#e6fcef"] ;
162 -> 163 ;
164 [label="entropy = 0.0\nsamples = 4\nvalue = [0, 4, 0]\nclass = Standard quality", fillcolor="#39e581"] ;
163 -> 164 ;
165 [label="volatile_acidity <= 0.185\nentropy = 0.946\nsamples = 11\nvalue = [0, 4, 7]\nclass = High quality", fillcolor="#c9aaf4"] ;
163 -> 165 ;
166 [label="alcohol <= 8.8\nentropy = 0.722\nsamples = 5\nvalue = [0, 4, 1]\nclass = Standard quality", fillcolor="#6aeca0"] ;
165 -> 166 ;
167 [label="entropy = 0.0\nsamples = 1\nvalue = [0, 0, 1]\nclass = High quality", fillcolor="#8139e5"] ;
166 -> 167 ;
168 [label="entropy = 0.0\nsamples = 4\nvalue = [0, 4, 0]\nclass = Standard quality", fillcolor="#39e581"] ;
166 -> 168 ;
169 [label="entropy = 0.0\nsamples = 6\nvalue = [0, 0, 6]\nclass = High quality", fillcolor="#8139e5"] ;
165 -> 169 ;
170 [label="entropy = 0.0\nsamples = 11\nvalue = [0, 11, 0]\nclass = Standard quality", fillcolor="#39e581"] ;
162 -> 170 ;
171 [label="alcohol <= 9.925\nentropy = 0.551\nsamples = 2475\nvalue = [126, 2238, 111]\nclass = Standard quality", fillcolor="#4de88e"] ;
1 -> 171 ;
172 [label="residual_sugar <= 13.05\nentropy = 0.449\nsamples = 1742\nvalue = [86, 1613, 43]\nclass = Standard quality", fillcolor="#48e78b"] ;
171 -> 172 ;
173 [label="free_sulfur_dioxide <= 27.5\nentropy = 0.388\nsamples = 1412\nvalue = [78, 1320, 14]\nclass = Standard quality", fillcolor="#47e78a"] ;
172 -> 173 ;
174 [label="sulphates <= 0.515\nentropy = 0.513\nsamples = 704\nvalue = [59, 636, 9]\nclass = Standard quality", fillcolor="#4ee88e"] ;
173 -> 174 ;
175 [label="citric_acid <= 0.405\nentropy = 0.691\nsamples = 244\nvalue = [38, 204, 2]\nclass = Standard quality", fillcolor="#5fea99"] ;
174 -> 175 ;
176 [label="pH <= 3.365\nentropy = 0.772\nsamples = 203\nvalue = [38, 163, 2]\nclass = Standard quality", fillcolor="#69eba0"] ;
175 -> 176 ;
177 [label="chlorides <= 0.069\nentropy = 0.676\nsamples = 184\nvalue = [29, 154, 1]\nclass = Standard quality", fillcolor="#5fea99"] ;
176 -> 177 ;
178 [label="density <= 0.995\nentropy = 0.813\nsamples = 118\nvalue = [25, 92, 1]\nclass = Standard quality", fillcolor="#70eca4"] ;
177 -> 178 ;
179 [label="total_sulfur_dioxide <= 114.0\nentropy = 0.512\nsamples = 79\nvalue = [9, 70, 0]\nclass = Standard quality", fillcolor="#52e891"] ;
178 -> 179 ;
180 [label="total_sulfur_dioxide <= 80.5\nentropy = 0.787\nsamples = 34\nvalue = [8, 26, 0]\nclass = Standard quality", fillcolor="#76eda8"] ;
179 -> 180 ;
181 [label="entropy = 0.0\nsamples = 10\nvalue = [0, 10, 0]\nclass = Standard quality", fillcolor="#39e581"] ;
180 -> 181 ;
182 [label="chlorides <= 0.056\nentropy = 0.918\nsamples = 24\nvalue = [8, 16, 0]\nclass = Standard quality", fillcolor="#9cf2c0"] ;
180 -> 182 ;
183 [label="pH <= 3.215\nentropy = 0.672\nsamples = 17\nvalue = [3, 14, 0]\nclass = Standard quality", fillcolor="#63eb9c"] ;
182 -> 183 ;
184 [label="entropy = 0.0\nsamples = 12\nvalue = [0, 12, 0]\nclass = Standard quality", fillcolor="#39e581"] ;
183 -> 184 ;
185 [label="citric_acid <= 0.195\nentropy = 0.971\nsamples = 5\nvalue = [3, 2, 0]\nclass = Low quality", fillcolor="#f6d5bd"] ;
183 -> 185 ;
186 [label="entropy = 0.0\nsamples = 2\nvalue = [2, 0, 0]\nclass = Low quality", fillcolor="#e58139"] ;
185 -> 186 ;
187 [label="chlorides <= 0.048\nentropy = 0.918\nsamples = 3\nvalue = [1, 2, 0]\nclass = Standard quality", fillcolor="#9cf2c0"] ;
185 -> 187 ;
188 [label="entropy = 0.0\nsamples = 2\nvalue = [0, 2, 0]\nclass = Standard quality", fillcolor="#39e581"] ;
187 -> 188 ;
189 [label="entropy = 0.0\nsamples = 1\nvalue = [1, 0, 0]\nclass = Low quality", fillcolor="#e58139"] ;
187 -> 189 ;
190 [label="alcohol <= 9.1\nentropy = 0.863\nsamples = 7\nvalue = [5, 2, 0]\nclass = Low quality", fillcolor="#efb388"] ;
182 -> 190 ;
191 [label="free_sulfur_dioxide <= 13.5\nentropy = 0.918\nsamples = 3\nvalue = [1, 2, 0]\nclass = Standard quality", fillcolor="#9cf2c0"] ;
190 -> 191 ;
192 [label="entropy = 0.0\nsamples = 1\nvalue = [1, 0, 0]\nclass = Low quality", fillcolor="#e58139"] ;
191 -> 192 ;
193 [label="entropy = 0.0\nsamples = 2\nvalue = [0, 2, 0]\nclass = Standard quality", fillcolor="#39e581"] ;
191 -> 193 ;
194 [label="entropy = 0.0\nsamples = 4\nvalue = [4, 0, 0]\nclass = Low quality", fillcolor="#e58139"] ;
190 -> 194 ;
195 [label="chlorides <= 0.035\nentropy = 0.154\nsamples = 45\nvalue = [1, 44, 0]\nclass = Standard quality", fillcolor="#3de684"] ;
179 -> 195 ;
196 [label="sulphates <= 0.43\nentropy = 1.0\nsamples = 2\nvalue = [1, 1, 0]\nclass = Low quality", fillcolor="#ffffff"] ;
195 -> 196 ;
197 [label="entropy = 0.0\nsamples = 1\nvalue = [0, 1, 0]\nclass = Standard quality", fillcolor="#39e581"] ;
196 -> 197 ;
198 [label="entropy = 0.0\nsamples = 1\nvalue = [1, 0, 0]\nclass = Low quality", fillcolor="#e58139"] ;
196 -> 198 ;
199 [label="entropy = 0.0\nsamples = 43\nvalue = [0, 43, 0]\nclass = Standard quality", fillcolor="#39e581"] ;
195 -> 199 ;
200 [label="chlorides <= 0.053\nentropy = 1.129\nsamples = 39\nvalue = [16, 22, 1]\nclass = Standard quality", fillcolor="#cbf8de"] ;
178 -> 200 ;
201 [label="free_sulfur_dioxide <= 17.0\nentropy = 0.764\nsamples = 27\nvalue = [6, 21, 0]\nclass = Standard quality", fillcolor="#72eca5"] ;
200 -> 201 ;
202 [label="pH <= 3.165\nentropy = 0.994\nsamples = 11\nvalue = [6, 5, 0]\nclass = Low quality", fillcolor="#fbeade"] ;
201 -> 202 ;
203 [label="entropy = 0.0\nsamples = 3\nvalue = [3, 0, 0]\nclass = Low quality", fillcolor="#e58139"] ;
202 -> 203 ;
204 [label="alcohol <= 8.95\nentropy = 0.954\nsamples = 8\nvalue = [3, 5, 0]\nclass = Standard quality", fillcolor="#b0f5cd"] ;
202 -> 204 ;
205 [label="entropy = 0.0\nsamples = 2\nvalue = [2, 0, 0]\nclass = Low quality", fillcolor="#e58139"] ;
204 -> 205 ;
206 [label="citric_acid <= 0.355\nentropy = 0.65\nsamples = 6\nvalue = [1, 5, 0]\nclass = Standard quality", fillcolor="#61ea9a"] ;
204 -> 206 ;
207 [label="entropy = 0.0\nsamples = 5\nvalue = [0, 5, 0]\nclass = Standard quality", fillcolor="#39e581"] ;
206 -> 207 ;
208 [label="entropy = 0.0\nsamples = 1\nvalue = [1, 0, 0]\nclass = Low quality", fillcolor="#e58139"] ;
206 -> 208 ;
209 [label="entropy = 0.0\nsamples = 16\nvalue = [0, 16, 0]\nclass = Standard quality", fillcolor="#39e581"] ;
201 -> 209 ;
210 [label="fixed_acidity <= 6.2\nentropy = 0.817\nsamples = 12\nvalue = [10, 1, 1]\nclass = Low quality", fillcolor="#ea985d"] ;
200 -> 210 ;
211 [label="entropy = 0.0\nsamples = 1\nvalue = [0, 0, 1]\nclass = High quality", fillcolor="#8139e5"] ;
210 -> 211 ;
212 [label="pH <= 3.125\nentropy = 0.439\nsamples = 11\nvalue = [10, 1, 0]\nclass = Low quality", fillcolor="#e88e4d"] ;
210 -> 212 ;
213 [label="sulphates <= 0.475\nentropy = 0.918\nsamples = 3\nvalue = [2, 1, 0]\nclass = Low quality", fillcolor="#f2c09c"] ;
212 -> 213 ;
214 [label="entropy = 0.0\nsamples = 2\nvalue = [2, 0, 0]\nclass = Low quality", fillcolor="#e58139"] ;
213 -> 214 ;
215 [label="entropy = 0.0\nsamples = 1\nvalue = [0, 1, 0]\nclass = Standard quality", fillcolor="#39e581"] ;
213 -> 215 ;
216 [label="entropy = 0.0\nsamples = 8\nvalue = [8, 0, 0]\nclass = Low quality", fillcolor="#e58139"] ;
212 -> 216 ;
217 [label="chlorides <= 0.128\nentropy = 0.33\nsamples = 66\nvalue = [4, 62, 0]\nclass = Standard quality", fillcolor="#46e789"] ;
177 -> 217 ;
218 [label="citric_acid <= 0.265\nentropy = 0.203\nsamples = 63\nvalue = [2, 61, 0]\nclass = Standard quality", fillcolor="#3fe685"] ;
217 -> 218 ;
219 [label="entropy = 0.0\nsamples = 42\nvalue = [0, 42, 0]\nclass = Standard quality", fillcolor="#39e581"] ;
218 -> 219 ;
220 [label="volatile_acidity <= 0.605\nentropy = 0.454\nsamples = 21\nvalue = [2, 19, 0]\nclass = Standard quality", fillcolor="#4ee88e"] ;
218 -> 220 ;
221 [label="entropy = 0.0\nsamples = 17\nvalue = [0, 17, 0]\nclass = Standard quality", fillcolor="#39e581"] ;
220 -> 221 ;
222 [label="total_sulfur_dioxide <= 68.5\nentropy = 1.0\nsamples = 4\nvalue = [2, 2, 0]\nclass = Low quality", fillcolor="#ffffff"] ;
220 -> 222 ;
223 [label="entropy = 0.0\nsamples = 2\nvalue = [2, 0, 0]\nclass = Low quality", fillcolor="#e58139"] ;
222 -> 223 ;
224 [label="entropy = 0.0\nsamples = 2\nvalue = [0, 2, 0]\nclass = Standard quality", fillcolor="#39e581"] ;
222 -> 224 ;
225 [label="free_sulfur_dioxide <= 16.5\nentropy = 0.918\nsamples = 3\nvalue = [2, 1, 0]\nclass = Low quality", fillcolor="#f2c09c"] ;
217 -> 225 ;
226 [label="entropy = 0.0\nsamples = 2\nvalue = [2, 0, 0]\nclass = Low quality", fillcolor="#e58139"] ;
225 -> 226 ;
227 [label="entropy = 0.0\nsamples = 1\nvalue = [0, 1, 0]\nclass = Standard quality", fillcolor="#39e581"] ;
225 -> 227 ;
228 [label="density <= 0.996\nentropy = 1.245\nsamples = 19\nvalue = [9, 9, 1]\nclass = Low quality", fillcolor="#ffffff"] ;
176 -> 228 ;
229 [label="sulphates <= 0.49\nentropy = 0.722\nsamples = 5\nvalue = [4, 0, 1]\nclass = Low quality", fillcolor="#eca06a"] ;
228 -> 229 ;
230 [label="entropy = 0.0\nsamples = 4\nvalue = [4, 0, 0]\nclass = Low quality", fillcolor="#e58139"] ;
229 -> 230 ;
231 [label="entropy = 0.0\nsamples = 1\nvalue = [0, 0, 1]\nclass = High quality", fillcolor="#8139e5"] ;
229 -> 231 ;
232 [label="density <= 0.997\nentropy = 0.94\nsamples = 14\nvalue = [5, 9, 0]\nclass = Standard quality", fillcolor="#a7f3c7"] ;
228 -> 232 ;
233 [label="entropy = 0.0\nsamples = 6\nvalue = [0, 6, 0]\nclass = Standard quality", fillcolor="#39e581"] ;
232 -> 233 ;
234 [label="citric_acid <= 0.09\nentropy = 0.954\nsamples = 8\nvalue = [5, 3, 0]\nclass = Low quality", fillcolor="#f5cdb0"] ;
232 -> 234 ;
235 [label="entropy = 0.0\nsamples = 4\nvalue = [4, 0, 0]\nclass = Low quality", fillcolor="#e58139"] ;
234 -> 235 ;
236 [label="density <= 0.997\nentropy = 0.811\nsamples = 4\nvalue = [1, 3, 0]\nclass = Standard quality", fillcolor="#7beeab"] ;
234 -> 236 ;
237 [label="entropy = 0.0\nsamples = 1\nvalue = [1, 0, 0]\nclass = Low quality", fillcolor="#e58139"] ;
236 -> 237 ;
238 [label="entropy = 0.0\nsamples = 3\nvalue = [0, 3, 0]\nclass = Standard quality", fillcolor="#39e581"] ;
236 -> 238 ;
239 [label="entropy = 0.0\nsamples = 41\nvalue = [0, 41, 0]\nclass = Standard quality", fillcolor="#39e581"] ;
175 -> 239 ;
240 [label="residual_sugar <= 1.35\nentropy = 0.38\nsamples = 460\nvalue = [21, 432, 7]\nclass = Standard quality", fillcolor="#46e789"] ;
174 -> 240 ;
241 [label="free_sulfur_dioxide <= 8.0\nentropy = 0.896\nsamples = 16\nvalue = [5, 11, 0]\nclass = Standard quality", fillcolor="#93f1ba"] ;
240 -> 241 ;
242 [label="entropy = 0.0\nsamples = 3\nvalue = [3, 0, 0]\nclass = Low quality", fillcolor="#e58139"] ;
241 -> 242 ;
243 [label="fixed_acidity <= 6.8\nentropy = 0.619\nsamples = 13\nvalue = [2, 11, 0]\nclass = Standard quality", fillcolor="#5dea98"] ;
241 -> 243 ;
244 [label="entropy = 0.0\nsamples = 9\nvalue = [0, 9, 0]\nclass = Standard quality", fillcolor="#39e581"] ;
243 -> 244 ;
245 [label="fixed_acidity <= 7.8\nentropy = 1.0\nsamples = 4\nvalue = [2, 2, 0]\nclass = Low quality", fillcolor="#ffffff"] ;
243 -> 245 ;
246 [label="entropy = 0.0\nsamples = 2\nvalue = [2, 0, 0]\nclass = Low quality", fillcolor="#e58139"] ;
245 -> 246 ;
247 [label="entropy = 0.0\nsamples = 2\nvalue = [0, 2, 0]\nclass = Standard quality", fillcolor="#39e581"] ;
245 -> 247 ;
248 [label="fixed_acidity <= 11.55\nentropy = 0.34\nsamples = 444\nvalue = [16.0, 421.0, 7.0]\nclass = Standard quality", fillcolor="#44e688"] ;
240 -> 248 ;
249 [label="volatile_acidity <= 0.587\nentropy = 0.287\nsamples = 428\nvalue = [13, 410, 5]\nclass = Standard quality", fillcolor="#42e686"] ;
248 -> 249 ;
250 [label="fixed_acidity <= 6.45\nentropy = 0.23\nsamples = 257\nvalue = [3, 249, 5]\nclass = Standard quality", fillcolor="#3fe685"] ;
249 -> 250 ;
251 [label="total_sulfur_dioxide <= 150.5\nentropy = 0.725\nsamples = 27\nvalue = [3, 23, 1]\nclass = Standard quality", fillcolor="#5ae996"] ;
250 -> 251 ;
252 [label="residual_sugar <= 6.1\nentropy = 0.276\nsamples = 21\nvalue = [1, 20, 0]\nclass = Standard quality", fillcolor="#43e687"] ;
251 -> 252 ;
253 [label="entropy = 0.0\nsamples = 20\nvalue = [0, 20, 0]\nclass = Standard quality", fillcolor="#39e581"] ;
252 -> 253 ;
254 [label="entropy = 0.0\nsamples = 1\nvalue = [1, 0, 0]\nclass = Low quality", fillcolor="#e58139"] ;
252 -> 254 ;
255 [label="sulphates <= 0.625\nentropy = 1.459\nsamples = 6\nvalue = [2, 3, 1]\nclass = Standard quality", fillcolor="#cef8e0"] ;
251 -> 255 ;
256 [label="entropy = 0.0\nsamples = 3\nvalue = [0, 3, 0]\nclass = Standard quality", fillcolor="#39e581"] ;
255 -> 256 ;
257 [label="citric_acid <= 0.205\nentropy = 0.918\nsamples = 3\nvalue = [2, 0, 1]\nclass = Low quality", fillcolor="#f2c09c"] ;
255 -> 257 ;
258 [label="entropy = 0.0\nsamples = 2\nvalue = [2, 0, 0]\nclass = Low quality", fillcolor="#e58139"] ;
257 -> 258 ;
259 [label="entropy = 0.0\nsamples = 1\nvalue = [0, 0, 1]\nclass = High quality", fillcolor="#8139e5"] ;
257 -> 259 ;
260 [label="total_sulfur_dioxide <= 45.5\nentropy = 0.127\nsamples = 230\nvalue = [0, 226, 4]\nclass = Standard quality", fillcolor="#3de583"] ;
250 -> 260 ;
261 [label="free_sulfur_dioxide <= 8.5\nentropy = 0.227\nsamples = 109\nvalue = [0, 105, 4]\nclass = Standard quality", fillcolor="#41e686"] ;
260 -> 261 ;
262 [label="entropy = 0.0\nsamples = 55\nvalue = [0, 55, 0]\nclass = Standard quality", fillcolor="#39e581"] ;
261 -> 262 ;
263 [label="volatile_acidity <= 0.577\nentropy = 0.381\nsamples = 54\nvalue = [0, 50, 4]\nclass = Standard quality", fillcolor="#49e78b"] ;
261 -> 263 ;
264 [label="citric_acid <= 0.35\nentropy = 0.314\nsamples = 53\nvalue = [0, 50, 3]\nclass = Standard quality", fillcolor="#45e789"] ;
263 -> 264 ;
265 [label="citric_acid <= 0.27\nentropy = 0.449\nsamples = 32\nvalue = [0, 29, 3]\nclass = Standard quality", fillcolor="#4de88e"] ;
264 -> 265 ;
266 [label="chlorides <= 0.083\nentropy = 0.216\nsamples = 29\nvalue = [0, 28, 1]\nclass = Standard quality", fillcolor="#40e686"] ;
265 -> 266 ;
267 [label="entropy = 0.0\nsamples = 22\nvalue = [0, 22, 0]\nclass = Standard quality", fillcolor="#39e581"] ;
266 -> 267 ;
268 [label="total_sulfur_dioxide <= 36.0\nentropy = 0.592\nsamples = 7\nvalue = [0, 6, 1]\nclass = Standard quality", fillcolor="#5ae996"] ;
266 -> 268 ;
269 [label="entropy = 0.0\nsamples = 1\nvalue = [0, 0, 1]\nclass = High quality", fillcolor="#8139e5"] ;
268 -> 269 ;
270 [label="entropy = 0.0\nsamples = 6\nvalue = [0, 6, 0]\nclass = Standard quality", fillcolor="#39e581"] ;
268 -> 270 ;
271 [label="fixed_acidity <= 7.8\nentropy = 0.918\nsamples = 3\nvalue = [0, 1, 2]\nclass = High quality", fillcolor="#c09cf2"] ;
265 -> 271 ;
272 [label="entropy = 0.0\nsamples = 1\nvalue = [0, 1, 0]\nclass = Standard quality", fillcolor="#39e581"] ;
271 -> 272 ;
273 [label="entropy = 0.0\nsamples = 2\nvalue = [0, 0, 2]\nclass = High quality", fillcolor="#8139e5"] ;
271 -> 273 ;
274 [label="entropy = 0.0\nsamples = 21\nvalue = [0, 21, 0]\nclass = Standard quality", fillcolor="#39e581"] ;
264 -> 274 ;
275 [label="entropy = 0.0\nsamples = 1\nvalue = [0, 0, 1]\nclass = High quality", fillcolor="#8139e5"] ;
263 -> 275 ;
276 [label="entropy = 0.0\nsamples = 121\nvalue = [0, 121, 0]\nclass = Standard quality", fillcolor="#39e581"] ;
260 -> 276 ;
277 [label="density <= 0.997\nentropy = 0.321\nsamples = 171\nvalue = [10, 161, 0]\nclass = Standard quality", fillcolor="#45e789"] ;
249 -> 277 ;
278 [label="volatile_acidity <= 0.955\nentropy = 0.1\nsamples = 77\nvalue = [1, 76, 0]\nclass = Standard quality", fillcolor="#3ce583"] ;
277 -> 278 ;
279 [label="entropy = 0.0\nsamples = 73\nvalue = [0, 73, 0]\nclass = Standard quality", fillcolor="#39e581"] ;
278 -> 279 ;
280 [label="fixed_acidity <= 7.15\nentropy = 0.811\nsamples = 4\nvalue = [1, 3, 0]\nclass = Standard quality", fillcolor="#7beeab"] ;
278 -> 280 ;
281 [label="entropy = 0.0\nsamples = 1\nvalue = [1, 0, 0]\nclass = Low quality", fillcolor="#e58139"] ;
280 -> 281 ;
282 [label="entropy = 0.0\nsamples = 3\nvalue = [0, 3, 0]\nclass = Standard quality", fillcolor="#39e581"] ;
280 -> 282 ;
283 [label="pH <= 3.315\nentropy = 0.455\nsamples = 94\nvalue = [9, 85, 0]\nclass = Standard quality", fillcolor="#4ee88e"] ;
277 -> 283 ;
284 [label="residual_sugar <= 2.25\nentropy = 0.675\nsamples = 45\nvalue = [8, 37, 0]\nclass = Standard quality", fillcolor="#64eb9c"] ;
283 -> 284 ;
285 [label="residual_sugar <= 2.05\nentropy = 0.949\nsamples = 19\nvalue = [7, 12, 0]\nclass = Standard quality", fillcolor="#acf4ca"] ;
284 -> 285 ;
286 [label="chlorides <= 0.082\nentropy = 0.619\nsamples = 13\nvalue = [2, 11, 0]\nclass = Standard quality", fillcolor="#5dea98"] ;
285 -> 286 ;
287 [label="residual_sugar <= 1.65\nentropy = 1.0\nsamples = 4\nvalue = [2, 2, 0]\nclass = Low quality", fillcolor="#ffffff"] ;
286 -> 287 ;
288 [label="entropy = 0.0\nsamples = 2\nvalue = [2, 0, 0]\nclass = Low quality", fillcolor="#e58139"] ;
287 -> 288 ;
289 [label="entropy = 0.0\nsamples = 2\nvalue = [0, 2, 0]\nclass = Standard quality", fillcolor="#39e581"] ;
287 -> 289 ;
290 [label="entropy = 0.0\nsamples = 9\nvalue = [0, 9, 0]\nclass = Standard quality", fillcolor="#39e581"] ;
286 -> 290 ;
291 [label="pH <= 3.12\nentropy = 0.65\nsamples = 6\nvalue = [5, 1, 0]\nclass = Low quality", fillcolor="#ea9a61"] ;
285 -> 291 ;
292 [label="entropy = 0.0\nsamples = 1\nvalue = [0, 1, 0]\nclass = Standard quality", fillcolor="#39e581"] ;
291 -> 292 ;
293 [label="entropy = 0.0\nsamples = 5\nvalue = [5, 0, 0]\nclass = Low quality", fillcolor="#e58139"] ;
291 -> 293 ;
294 [label="chlorides <= 0.201\nentropy = 0.235\nsamples = 26\nvalue = [1, 25, 0]\nclass = Standard quality", fillcolor="#41e686"] ;
284 -> 294 ;
295 [label="entropy = 0.0\nsamples = 25\nvalue = [0, 25, 0]\nclass = Standard quality", fillcolor="#39e581"] ;
294 -> 295 ;
296 [label="entropy = 0.0\nsamples = 1\nvalue = [1, 0, 0]\nclass = Low quality", fillcolor="#e58139"] ;
294 -> 296 ;
297 [label="volatile_acidity <= 0.855\nentropy = 0.144\nsamples = 49\nvalue = [1.0, 48.0, 0.0]\nclass = Standard quality", fillcolor="#3de684"] ;
283 -> 297 ;
298 [label="entropy = 0.0\nsamples = 48\nvalue = [0, 48, 0]\nclass = Standard quality", fillcolor="#39e581"] ;
297 -> 298 ;
299 [label="entropy = 0.0\nsamples = 1\nvalue = [1, 0, 0]\nclass = Low quality", fillcolor="#e58139"] ;
297 -> 299 ;
300 [label="total_sulfur_dioxide <= 45.0\nentropy = 1.199\nsamples = 16\nvalue = [3, 11, 2]\nclass = Standard quality", fillcolor="#85efb1"] ;
248 -> 300 ;
301 [label="volatile_acidity <= 0.295\nentropy = 0.619\nsamples = 13\nvalue = [0, 11, 2]\nclass = Standard quality", fillcolor="#5dea98"] ;
300 -> 301 ;
302 [label="pH <= 3.125\nentropy = 1.0\nsamples = 4\nvalue = [0, 2, 2]\nclass = Standard quality", fillcolor="#ffffff"] ;
301 -> 302 ;
303 [label="entropy = 0.0\nsamples = 2\nvalue = [0, 0, 2]\nclass = High quality", fillcolor="#8139e5"] ;
302 -> 303 ;
304 [label="entropy = 0.0\nsamples = 2\nvalue = [0, 2, 0]\nclass = Standard quality", fillcolor="#39e581"] ;
302 -> 304 ;
305 [label="entropy = 0.0\nsamples = 9\nvalue = [0, 9, 0]\nclass = Standard quality", fillcolor="#39e581"] ;
301 -> 305 ;
306 [label="entropy = 0.0\nsamples = 3\nvalue = [3, 0, 0]\nclass = Low quality", fillcolor="#e58139"] ;
300 -> 306 ;
307 [label="residual_sugar <= 1.625\nentropy = 0.239\nsamples = 708\nvalue = [19, 684, 5]\nclass = Standard quality", fillcolor="#40e685"] ;
173 -> 307 ;
308 [label="pH <= 3.135\nentropy = 0.76\nsamples = 70\nvalue = [8, 59, 3]\nclass = Standard quality", fillcolor="#5cea97"] ;
307 -> 308 ;
309 [label="entropy = 0.0\nsamples = 32\nvalue = [0, 32, 0]\nclass = Standard quality", fillcolor="#39e581"] ;
308 -> 309 ;
310 [label="density <= 0.994\nentropy = 1.113\nsamples = 38\nvalue = [8, 27, 3]\nclass = Standard quality", fillcolor="#82efaf"] ;
308 -> 310 ;
311 [label="total_sulfur_dioxide <= 103.0\nentropy = 0.831\nsamples = 29\nvalue = [2, 24, 3]\nclass = Standard quality", fillcolor="#5fea99"] ;
310 -> 311 ;
312 [label="residual_sugar <= 1.25\nentropy = 0.918\nsamples = 3\nvalue = [2, 0, 1]\nclass = Low quality", fillcolor="#f2c09c"] ;
311 -> 312 ;
313 [label="entropy = 0.0\nsamples = 2\nvalue = [2, 0, 0]\nclass = Low quality", fillcolor="#e58139"] ;
312 -> 313 ;
314 [label="entropy = 0.0\nsamples = 1\nvalue = [0, 0, 1]\nclass = High quality", fillcolor="#8139e5"] ;
312 -> 314 ;
315 [label="density <= 0.993\nentropy = 0.391\nsamples = 26\nvalue = [0, 24, 2]\nclass = Standard quality", fillcolor="#49e78c"] ;
311 -> 315 ;
316 [label="entropy = 0.0\nsamples = 20\nvalue = [0, 20, 0]\nclass = Standard quality", fillcolor="#39e581"] ;
315 -> 316 ;
317 [label="citric_acid <= 0.205\nentropy = 0.918\nsamples = 6\nvalue = [0, 4, 2]\nclass = Standard quality", fillcolor="#9cf2c0"] ;
315 -> 317 ;
318 [label="entropy = 0.0\nsamples = 3\nvalue = [0, 3, 0]\nclass = Standard quality", fillcolor="#39e581"] ;
317 -> 318 ;
319 [label="pH <= 3.17\nentropy = 0.918\nsamples = 3\nvalue = [0, 1, 2]\nclass = High quality", fillcolor="#c09cf2"] ;
317 -> 319 ;
320 [label="entropy = 0.0\nsamples = 1\nvalue = [0, 1, 0]\nclass = Standard quality", fillcolor="#39e581"] ;
319 -> 320 ;
321 [label="entropy = 0.0\nsamples = 2\nvalue = [0, 0, 2]\nclass = High quality", fillcolor="#8139e5"] ;
319 -> 321 ;
322 [label="citric_acid <= 0.34\nentropy = 0.918\nsamples = 9\nvalue = [6, 3, 0]\nclass = Low quality", fillcolor="#f2c09c"] ;
310 -> 322 ;
323 [label="density <= 0.995\nentropy = 0.971\nsamples = 5\nvalue = [2, 3, 0]\nclass = Standard quality", fillcolor="#bdf6d5"] ;
322 -> 323 ;
324 [label="entropy = 0.0\nsamples = 2\nvalue = [2, 0, 0]\nclass = Low quality", fillcolor="#e58139"] ;
323 -> 324 ;
325 [label="entropy = 0.0\nsamples = 3\nvalue = [0, 3, 0]\nclass = Standard quality", fillcolor="#39e581"] ;
323 -> 325 ;
326 [label="entropy = 0.0\nsamples = 4\nvalue = [4, 0, 0]\nclass = Low quality", fillcolor="#e58139"] ;
322 -> 326 ;
327 [label="chlorides <= 0.242\nentropy = 0.156\nsamples = 638\nvalue = [11, 625, 2]\nclass = Standard quality", fillcolor="#3de684"] ;
307 -> 327 ;
328 [label="total_sulfur_dioxide <= 179.5\nentropy = 0.138\nsamples = 636\nvalue = [9, 625, 2]\nclass = Standard quality", fillcolor="#3ce583"] ;
327 -> 328 ;
329 [label="density <= 0.993\nentropy = 0.028\nsamples = 357\nvalue = [0, 356, 1]\nclass = Standard quality", fillcolor="#3ae581"] ;
328 -> 329 ;
330 [label="density <= 0.993\nentropy = 0.469\nsamples = 10\nvalue = [0, 9, 1]\nclass = Standard quality", fillcolor="#4fe88f"] ;
329 -> 330 ;
331 [label="entropy = 0.0\nsamples = 9\nvalue = [0, 9, 0]\nclass = Standard quality", fillcolor="#39e581"] ;
330 -> 331 ;
332 [label="entropy = 0.0\nsamples = 1\nvalue = [0, 0, 1]\nclass = High quality", fillcolor="#8139e5"] ;
330 -> 332 ;
333 [label="entropy = 0.0\nsamples = 347\nvalue = [0, 347, 0]\nclass = Standard quality", fillcolor="#39e581"] ;
329 -> 333 ;
334 [label="sulphates <= 0.485\nentropy = 0.24\nsamples = 279\nvalue = [9, 269, 1]\nclass = Standard quality", fillcolor="#40e686"] ;
328 -> 334 ;
335 [label="entropy = 0.0\nsamples = 127\nvalue = [0, 127, 0]\nclass = Standard quality", fillcolor="#39e581"] ;
334 -> 335 ;
336 [label="fixed_acidity <= 6.35\nentropy = 0.381\nsamples = 152\nvalue = [9, 142, 1]\nclass = Standard quality", fillcolor="#47e78a"] ;
334 -> 336 ;
337 [label="chlorides <= 0.048\nentropy = 0.887\nsamples = 32\nvalue = [6, 25, 1]\nclass = Standard quality", fillcolor="#6eeca3"] ;
336 -> 337 ;
338 [label="pH <= 3.345\nentropy = 0.353\nsamples = 15\nvalue = [0, 14, 1]\nclass = Standard quality", fillcolor="#47e78a"] ;
337 -> 338 ;
339 [label="entropy = 0.0\nsamples = 14\nvalue = [0, 14, 0]\nclass = Standard quality", fillcolor="#39e581"] ;
338 -> 339 ;
340 [label="entropy = 0.0\nsamples = 1\nvalue = [0, 0, 1]\nclass = High quality", fillcolor="#8139e5"] ;
338 -> 340 ;
341 [label="total_sulfur_dioxide <= 201.0\nentropy = 0.937\nsamples = 17\nvalue = [6, 11, 0]\nclass = Standard quality", fillcolor="#a5f3c6"] ;
337 -> 341 ;
342 [label="entropy = 0.0\nsamples = 3\nvalue = [3, 0, 0]\nclass = Low quality", fillcolor="#e58139"] ;
341 -> 342 ;
343 [label="alcohol <= 9.25\nentropy = 0.75\nsamples = 14\nvalue = [3, 11, 0]\nclass = Standard quality", fillcolor="#6feca3"] ;
341 -> 343 ;
344 [label="entropy = 0.0\nsamples = 6\nvalue = [0, 6, 0]\nclass = Standard quality", fillcolor="#39e581"] ;
343 -> 344 ;
345 [label="citric_acid <= 0.46\nentropy = 0.954\nsamples = 8\nvalue = [3, 5, 0]\nclass = Standard quality", fillcolor="#b0f5cd"] ;
343 -> 345 ;
346 [label="total_sulfur_dioxide <= 210.5\nentropy = 0.971\nsamples = 5\nvalue = [3, 2, 0]\nclass = Low quality", fillcolor="#f6d5bd"] ;
345 -> 346 ;
347 [label="total_sulfur_dioxide <= 206.5\nentropy = 0.918\nsamples = 3\nvalue = [1, 2, 0]\nclass = Standard quality", fillcolor="#9cf2c0"] ;
346 -> 347 ;
348 [label="entropy = 0.0\nsamples = 1\nvalue = [1, 0, 0]\nclass = Low quality", fillcolor="#e58139"] ;
347 -> 348 ;
349 [label="entropy = 0.0\nsamples = 2\nvalue = [0, 2, 0]\nclass = Standard quality", fillcolor="#39e581"] ;
347 -> 349 ;
350 [label="entropy = 0.0\nsamples = 2\nvalue = [2, 0, 0]\nclass = Low quality", fillcolor="#e58139"] ;
346 -> 350 ;
351 [label="entropy = 0.0\nsamples = 3\nvalue = [0, 3, 0]\nclass = Standard quality", fillcolor="#39e581"] ;
345 -> 351 ;
352 [label="alcohol <= 8.7\nentropy = 0.169\nsamples = 120\nvalue = [3, 117, 0]\nclass = Standard quality", fillcolor="#3ee684"] ;
336 -> 352 ;
353 [label="entropy = 0.0\nsamples = 2\nvalue = [2, 0, 0]\nclass = Low quality", fillcolor="#e58139"] ;
352 -> 353 ;
354 [label="total_sulfur_dioxide <= 180.5\nentropy = 0.071\nsamples = 118\nvalue = [1, 117, 0]\nclass = Standard quality", fillcolor="#3be582"] ;
352 -> 354 ;
355 [label="residual_sugar <= 9.05\nentropy = 0.544\nsamples = 8\nvalue = [1, 7, 0]\nclass = Standard quality", fillcolor="#55e993"] ;
354 -> 355 ;
356 [label="entropy = 0.0\nsamples = 7\nvalue = [0, 7, 0]\nclass = Standard quality", fillcolor="#39e581"] ;
355 -> 356 ;
357 [label="entropy = 0.0\nsamples = 1\nvalue = [1, 0, 0]\nclass = Low quality", fillcolor="#e58139"] ;
355 -> 357 ;
358 [label="entropy = 0.0\nsamples = 110\nvalue = [0, 110, 0]\nclass = Standard quality", fillcolor="#39e581"] ;
354 -> 358 ;
359 [label="entropy = 0.0\nsamples = 2\nvalue = [2, 0, 0]\nclass = Low quality", fillcolor="#e58139"] ;
327 -> 359 ;
360 [label="residual_sugar <= 15.35\nentropy = 0.591\nsamples = 330\nvalue = [8, 293, 29]\nclass = Standard quality", fillcolor="#51e890"] ;
172 -> 360 ;
361 [label="volatile_acidity <= 0.305\nentropy = 0.882\nsamples = 162\nvalue = [6, 128, 28]\nclass = Standard quality", fillcolor="#6beca1"] ;
360 -> 361 ;
362 [label="fixed_acidity <= 6.85\nentropy = 0.942\nsamples = 110\nvalue = [2.0, 80.0, 28.0]\nclass = Standard quality", fillcolor="#81efaf"] ;
361 -> 362 ;
363 [label="entropy = 0.0\nsamples = 32\nvalue = [0, 32, 0]\nclass = Standard quality", fillcolor="#39e581"] ;
362 -> 363 ;
364 [label="free_sulfur_dioxide <= 33.5\nentropy = 1.097\nsamples = 78\nvalue = [2, 48, 28]\nclass = Standard quality", fillcolor="#b0f5cd"] ;
362 -> 364 ;
365 [label="citric_acid <= 0.275\nentropy = 0.353\nsamples = 15\nvalue = [1, 14, 0]\nclass = Standard quality", fillcolor="#47e78a"] ;
364 -> 365 ;
366 [label="residual_sugar <= 14.75\nentropy = 1.0\nsamples = 2\nvalue = [1, 1, 0]\nclass = Low quality", fillcolor="#ffffff"] ;
365 -> 366 ;
367 [label="entropy = 0.0\nsamples = 1\nvalue = [0, 1, 0]\nclass = Standard quality", fillcolor="#39e581"] ;
366 -> 367 ;
368 [label="entropy = 0.0\nsamples = 1\nvalue = [1, 0, 0]\nclass = Low quality", fillcolor="#e58139"] ;
366 -> 368 ;
369 [label="entropy = 0.0\nsamples = 13\nvalue = [0, 13, 0]\nclass = Standard quality", fillcolor="#39e581"] ;
365 -> 369 ;
370 [label="free_sulfur_dioxide <= 39.5\nentropy = 1.095\nsamples = 63\nvalue = [1, 34, 28]\nclass = Standard quality", fillcolor="#ddfbe9"] ;
364 -> 370 ;
371 [label="entropy = 0.0\nsamples = 11\nvalue = [0, 0, 11]\nclass = High quality", fillcolor="#8139e5"] ;
370 -> 371 ;
372 [label="residual_sugar <= 14.35\nentropy = 1.038\nsamples = 52\nvalue = [1, 34, 17]\nclass = Standard quality", fillcolor="#9ff2c2"] ;
370 -> 372 ;
373 [label="fixed_acidity <= 7.35\nentropy = 0.602\nsamples = 34\nvalue = [0, 29, 5]\nclass = Standard quality", fillcolor="#5be997"] ;
372 -> 373 ;
374 [label="sulphates <= 0.46\nentropy = 0.896\nsamples = 16\nvalue = [0, 11, 5]\nclass = Standard quality", fillcolor="#93f1ba"] ;
373 -> 374 ;
375 [label="entropy = 0.0\nsamples = 7\nvalue = [0, 7, 0]\nclass = Standard quality", fillcolor="#39e581"] ;
374 -> 375 ;
376 [label="sulphates <= 0.525\nentropy = 0.991\nsamples = 9\nvalue = [0, 4, 5]\nclass = High quality", fillcolor="#e6d7fa"] ;
374 -> 376 ;
377 [label="entropy = 0.0\nsamples = 4\nvalue = [0, 0, 4]\nclass = High quality", fillcolor="#8139e5"] ;
376 -> 377 ;
378 [label="pH <= 3.265\nentropy = 0.722\nsamples = 5\nvalue = [0, 4, 1]\nclass = Standard quality", fillcolor="#6aeca0"] ;
376 -> 378 ;
379 [label="entropy = 0.0\nsamples = 4\nvalue = [0, 4, 0]\nclass = Standard quality", fillcolor="#39e581"] ;
378 -> 379 ;
380 [label="entropy = 0.0\nsamples = 1\nvalue = [0, 0, 1]\nclass = High quality", fillcolor="#8139e5"] ;
378 -> 380 ;
381 [label="entropy = 0.0\nsamples = 18\nvalue = [0, 18, 0]\nclass = Standard quality", fillcolor="#39e581"] ;
373 -> 381 ;
382 [label="volatile_acidity <= 0.225\nentropy = 1.135\nsamples = 18\nvalue = [1, 5, 12]\nclass = High quality", fillcolor="#bb94f1"] ;
372 -> 382 ;
383 [label="entropy = 0.0\nsamples = 7\nvalue = [0, 0, 7]\nclass = High quality", fillcolor="#8139e5"] ;
382 -> 383 ;
384 [label="free_sulfur_dioxide <= 48.0\nentropy = 1.349\nsamples = 11\nvalue = [1, 5, 5]\nclass = Standard quality", fillcolor="#ffffff"] ;
382 -> 384 ;
385 [label="chlorides <= 0.062\nentropy = 0.722\nsamples = 5\nvalue = [1, 4, 0]\nclass = Standard quality", fillcolor="#6aeca0"] ;
384 -> 385 ;
386 [label="entropy = 0.0\nsamples = 4\nvalue = [0, 4, 0]\nclass = Standard quality", fillcolor="#39e581"] ;
385 -> 386 ;
387 [label="entropy = 0.0\nsamples = 1\nvalue = [1, 0, 0]\nclass = Low quality", fillcolor="#e58139"] ;
385 -> 387 ;
388 [label="free_sulfur_dioxide <= 66.5\nentropy = 0.65\nsamples = 6\nvalue = [0, 1, 5]\nclass = High quality", fillcolor="#9a61ea"] ;
384 -> 388 ;
389 [label="entropy = 0.0\nsamples = 5\nvalue = [0, 0, 5]\nclass = High quality", fillcolor="#8139e5"] ;
388 -> 389 ;
390 [label="entropy = 0.0\nsamples = 1\nvalue = [0, 1, 0]\nclass = Standard quality", fillcolor="#39e581"] ;
388 -> 390 ;
391 [label="chlorides <= 0.054\nentropy = 0.391\nsamples = 52\nvalue = [4, 48, 0]\nclass = Standard quality", fillcolor="#49e78c"] ;
361 -> 391 ;
392 [label="entropy = 0.0\nsamples = 36\nvalue = [0, 36, 0]\nclass = Standard quality", fillcolor="#39e581"] ;
391 -> 392 ;
393 [label="alcohol <= 9.1\nentropy = 0.811\nsamples = 16\nvalue = [4, 12, 0]\nclass = Standard quality", fillcolor="#7beeab"] ;
391 -> 393 ;
394 [label="fixed_acidity <= 7.35\nentropy = 0.918\nsamples = 6\nvalue = [4, 2, 0]\nclass = Low quality", fillcolor="#f2c09c"] ;
393 -> 394 ;
395 [label="entropy = 0.0\nsamples = 3\nvalue = [3, 0, 0]\nclass = Low quality", fillcolor="#e58139"] ;
394 -> 395 ;
396 [label="pH <= 3.19\nentropy = 0.918\nsamples = 3\nvalue = [1, 2, 0]\nclass = Standard quality", fillcolor="#9cf2c0"] ;
394 -> 396 ;
397 [label="entropy = 0.0\nsamples = 2\nvalue = [0, 2, 0]\nclass = Standard quality", fillcolor="#39e581"] ;
396 -> 397 ;
398 [label="entropy = 0.0\nsamples = 1\nvalue = [1, 0, 0]\nclass = Low quality", fillcolor="#e58139"] ;
396 -> 398 ;
399 [label="entropy = 0.0\nsamples = 10\nvalue = [0, 10, 0]\nclass = Standard quality", fillcolor="#39e581"] ;
393 -> 399 ;
400 [label="fixed_acidity <= 7.95\nentropy = 0.146\nsamples = 168\nvalue = [2, 165, 1]\nclass = Standard quality", fillcolor="#3de583"] ;
360 -> 400 ;
401 [label="total_sulfur_dioxide <= 193.0\nentropy = 0.057\nsamples = 151\nvalue = [0, 150, 1]\nclass = Standard quality", fillcolor="#3ae582"] ;
400 -> 401 ;
402 [label="entropy = 0.0\nsamples = 122\nvalue = [0, 122, 0]\nclass = Standard quality", fillcolor="#39e581"] ;
401 -> 402 ;
403 [label="free_sulfur_dioxide <= 42.75\nentropy = 0.216\nsamples = 29\nvalue = [0, 28, 1]\nclass = Standard quality", fillcolor="#40e686"] ;
401 -> 403 ;
404 [label="entropy = 0.0\nsamples = 1\nvalue = [0, 0, 1]\nclass = High quality", fillcolor="#8139e5"] ;
403 -> 404 ;
405 [label="entropy = 0.0\nsamples = 28\nvalue = [0, 28, 0]\nclass = Standard quality", fillcolor="#39e581"] ;
403 -> 405 ;
406 [label="pH <= 2.935\nentropy = 0.523\nsamples = 17\nvalue = [2, 15, 0]\nclass = Standard quality", fillcolor="#53e892"] ;
400 -> 406 ;
407 [label="entropy = 0.0\nsamples = 1\nvalue = [1, 0, 0]\nclass = Low quality", fillcolor="#e58139"] ;
406 -> 407 ;
408 [label="alcohol <= 9.75\nentropy = 0.337\nsamples = 16\nvalue = [1, 15, 0]\nclass = Standard quality", fillcolor="#46e789"] ;
406 -> 408 ;
409 [label="entropy = 0.0\nsamples = 15\nvalue = [0, 15, 0]\nclass = Standard quality", fillcolor="#39e581"] ;
408 -> 409 ;
410 [label="entropy = 0.0\nsamples = 1\nvalue = [1, 0, 0]\nclass = Low quality", fillcolor="#e58139"] ;
408 -> 410 ;
411 [label="free_sulfur_dioxide <= 9.5\nentropy = 0.743\nsamples = 733\nvalue = [40, 625, 68]\nclass = Standard quality", fillcolor="#59e995"] ;
171 -> 411 ;
412 [label="sulphates <= 0.635\nentropy = 1.095\nsamples = 107\nvalue = [19, 78, 10]\nclass = Standard quality", fillcolor="#7aeeab"] ;
411 -> 412 ;
413 [label="total_sulfur_dioxide <= 65.5\nentropy = 0.938\nsamples = 71\nvalue = [19, 51, 1]\nclass = Standard quality", fillcolor="#85efb1"] ;
412 -> 413 ;
414 [label="pH <= 3.505\nentropy = 0.715\nsamples = 61\nvalue = [12, 49, 0]\nclass = Standard quality", fillcolor="#69eba0"] ;
413 -> 414 ;
415 [label="sulphates <= 0.575\nentropy = 0.657\nsamples = 59\nvalue = [10, 49, 0]\nclass = Standard quality", fillcolor="#61ea9b"] ;
414 -> 415 ;
416 [label="residual_sugar <= 1.65\nentropy = 0.811\nsamples = 40\nvalue = [10, 30, 0]\nclass = Standard quality", fillcolor="#7beeab"] ;
415 -> 416 ;
417 [label="free_sulfur_dioxide <= 5.5\nentropy = 0.954\nsamples = 8\nvalue = [5, 3, 0]\nclass = Low quality", fillcolor="#f5cdb0"] ;
416 -> 417 ;
418 [label="entropy = 0.0\nsamples = 4\nvalue = [4, 0, 0]\nclass = Low quality", fillcolor="#e58139"] ;
417 -> 418 ;
419 [label="volatile_acidity <= 0.25\nentropy = 0.811\nsamples = 4\nvalue = [1, 3, 0]\nclass = Standard quality", fillcolor="#7beeab"] ;
417 -> 419 ;
420 [label="entropy = 0.0\nsamples = 1\nvalue = [1, 0, 0]\nclass = Low quality", fillcolor="#e58139"] ;
419 -> 420 ;
421 [label="entropy = 0.0\nsamples = 3\nvalue = [0, 3, 0]\nclass = Standard quality", fillcolor="#39e581"] ;
419 -> 421 ;
422 [label="pH <= 3.25\nentropy = 0.625\nsamples = 32\nvalue = [5, 27, 0]\nclass = Standard quality", fillcolor="#5eea98"] ;
416 -> 422 ;
423 [label="entropy = 0.0\nsamples = 17\nvalue = [0, 17, 0]\nclass = Standard quality", fillcolor="#39e581"] ;
422 -> 423 ;
424 [label="residual_sugar <= 2.0\nentropy = 0.918\nsamples = 15\nvalue = [5, 10, 0]\nclass = Standard quality", fillcolor="#9cf2c0"] ;
422 -> 424 ;
425 [label="entropy = 0.0\nsamples = 5\nvalue = [0, 5, 0]\nclass = Standard quality", fillcolor="#39e581"] ;
424 -> 425 ;
426 [label="density <= 0.996\nentropy = 1.0\nsamples = 10\nvalue = [5, 5, 0]\nclass = Low quality", fillcolor="#ffffff"] ;
424 -> 426 ;
427 [label="pH <= 3.325\nentropy = 0.65\nsamples = 6\nvalue = [1, 5, 0]\nclass = Standard quality", fillcolor="#61ea9a"] ;
426 -> 427 ;
428 [label="entropy = 0.0\nsamples = 1\nvalue = [1, 0, 0]\nclass = Low quality", fillcolor="#e58139"] ;
427 -> 428 ;
429 [label="entropy = 0.0\nsamples = 5\nvalue = [0, 5, 0]\nclass = Standard quality", fillcolor="#39e581"] ;
427 -> 429 ;
430 [label="entropy = 0.0\nsamples = 4\nvalue = [4, 0, 0]\nclass = Low quality", fillcolor="#e58139"] ;
426 -> 430 ;
431 [label="entropy = 0.0\nsamples = 19\nvalue = [0, 19, 0]\nclass = Standard quality", fillcolor="#39e581"] ;
415 -> 431 ;
432 [label="entropy = 0.0\nsamples = 2\nvalue = [2, 0, 0]\nclass = Low quality", fillcolor="#e58139"] ;
414 -> 432 ;
433 [label="volatile_acidity <= 0.405\nentropy = 1.157\nsamples = 10\nvalue = [7, 2, 1]\nclass = Low quality", fillcolor="#efb083"] ;
413 -> 433 ;
434 [label="pH <= 3.395\nentropy = 0.544\nsamples = 8\nvalue = [7, 0, 1]\nclass = Low quality", fillcolor="#e99355"] ;
433 -> 434 ;
435 [label="entropy = 0.0\nsamples = 7\nvalue = [7, 0, 0]\nclass = Low quality", fillcolor="#e58139"] ;
434 -> 435 ;
436 [label="entropy = 0.0\nsamples = 1\nvalue = [0, 0, 1]\nclass = High quality", fillcolor="#8139e5"] ;
434 -> 436 ;
437 [label="entropy = 0.0\nsamples = 2\nvalue = [0, 2, 0]\nclass = Standard quality", fillcolor="#39e581"] ;
433 -> 437 ;
438 [label="fixed_acidity <= 12.7\nentropy = 0.811\nsamples = 36\nvalue = [0, 27, 9]\nclass = Standard quality", fillcolor="#7beeab"] ;
412 -> 438 ;
439 [label="volatile_acidity <= 0.34\nentropy = 0.734\nsamples = 34\nvalue = [0, 27, 7]\nclass = Standard quality", fillcolor="#6ceca2"] ;
438 -> 439 ;
440 [label="volatile_acidity <= 0.285\nentropy = 0.918\nsamples = 6\nvalue = [0, 2, 4]\nclass = High quality", fillcolor="#c09cf2"] ;
439 -> 440 ;
441 [label="density <= 0.997\nentropy = 0.918\nsamples = 3\nvalue = [0, 2, 1]\nclass = Standard quality", fillcolor="#9cf2c0"] ;
440 -> 441 ;
442 [label="entropy = 0.0\nsamples = 1\nvalue = [0, 0, 1]\nclass = High quality", fillcolor="#8139e5"] ;
441 -> 442 ;
443 [label="entropy = 0.0\nsamples = 2\nvalue = [0, 2, 0]\nclass = Standard quality", fillcolor="#39e581"] ;
441 -> 443 ;
444 [label="entropy = 0.0\nsamples = 3\nvalue = [0, 0, 3]\nclass = High quality", fillcolor="#8139e5"] ;
440 -> 444 ;
445 [label="fixed_acidity <= 8.05\nentropy = 0.491\nsamples = 28\nvalue = [0, 25, 3]\nclass = Standard quality", fillcolor="#51e890"] ;
439 -> 445 ;
446 [label="fixed_acidity <= 7.3\nentropy = 0.985\nsamples = 7\nvalue = [0, 4, 3]\nclass = Standard quality", fillcolor="#cef8e0"] ;
445 -> 446 ;
447 [label="entropy = 0.0\nsamples = 4\nvalue = [0, 4, 0]\nclass = Standard quality", fillcolor="#39e581"] ;
446 -> 447 ;
448 [label="entropy = 0.0\nsamples = 3\nvalue = [0, 0, 3]\nclass = High quality", fillcolor="#8139e5"] ;
446 -> 448 ;
449 [label="entropy = 0.0\nsamples = 21\nvalue = [0, 21, 0]\nclass = Standard quality", fillcolor="#39e581"] ;
445 -> 449 ;
450 [label="entropy = 0.0\nsamples = 2\nvalue = [0, 0, 2]\nclass = High quality", fillcolor="#8139e5"] ;
438 -> 450 ;
451 [label="volatile_acidity <= 0.595\nentropy = 0.652\nsamples = 626\nvalue = [21, 547, 58]\nclass = Standard quality", fillcolor="#55e993"] ;
411 -> 451 ;
452 [label="sulphates <= 0.505\nentropy = 0.617\nsamples = 558\nvalue = [12.0, 490.0, 56.0]\nclass = Standard quality", fillcolor="#54e992"] ;
451 -> 452 ;
453 [label="chlorides <= 0.037\nentropy = 0.478\nsamples = 239\nvalue = [8.0, 220.0, 11.0]\nclass = Standard quality", fillcolor="#4ae78c"] ;
452 -> 453 ;
454 [label="residual_sugar <= 4.85\nentropy = 0.699\nsamples = 64\nvalue = [1, 54, 9]\nclass = Standard quality", fillcolor="#5dea98"] ;
453 -> 454 ;
455 [label="citric_acid <= 0.435\nentropy = 0.242\nsamples = 25\nvalue = [1, 24, 0]\nclass = Standard quality", fillcolor="#41e686"] ;
454 -> 455 ;
456 [label="entropy = 0.0\nsamples = 24\nvalue = [0, 24, 0]\nclass = Standard quality", fillcolor="#39e581"] ;
455 -> 456 ;
457 [label="entropy = 0.0\nsamples = 1\nvalue = [1, 0, 0]\nclass = Low quality", fillcolor="#e58139"] ;
455 -> 457 ;
458 [label="total_sulfur_dioxide <= 146.0\nentropy = 0.779\nsamples = 39\nvalue = [0, 30, 9]\nclass = Standard quality", fillcolor="#74eda7"] ;
454 -> 458 ;
459 [label="chlorides <= 0.033\nentropy = 0.906\nsamples = 28\nvalue = [0, 19, 9]\nclass = Standard quality", fillcolor="#97f1bd"] ;
458 -> 459 ;
460 [label="total_sulfur_dioxide <= 139.5\nentropy = 0.391\nsamples = 13\nvalue = [0, 12, 1]\nclass = Standard quality", fillcolor="#49e78c"] ;
459 -> 460 ;
461 [label="entropy = 0.0\nsamples = 12\nvalue = [0, 12, 0]\nclass = Standard quality", fillcolor="#39e581"] ;
460 -> 461 ;
462 [label="entropy = 0.0\nsamples = 1\nvalue = [0, 0, 1]\nclass = High quality", fillcolor="#8139e5"] ;
460 -> 462 ;
463 [label="sulphates <= 0.44\nentropy = 0.997\nsamples = 15\nvalue = [0, 7, 8]\nclass = High quality", fillcolor="#efe6fc"] ;
459 -> 463 ;
464 [label="residual_sugar <= 5.4\nentropy = 0.98\nsamples = 12\nvalue = [0, 7, 5]\nclass = Standard quality", fillcolor="#c6f8db"] ;
463 -> 464 ;
465 [label="entropy = 0.0\nsamples = 2\nvalue = [0, 0, 2]\nclass = High quality", fillcolor="#8139e5"] ;
464 -> 465 ;
466 [label="fixed_acidity <= 7.65\nentropy = 0.881\nsamples = 10\nvalue = [0, 7, 3]\nclass = Standard quality", fillcolor="#8ef0b7"] ;
464 -> 466 ;
467 [label="entropy = 0.0\nsamples = 6\nvalue = [0, 6, 0]\nclass = Standard quality", fillcolor="#39e581"] ;
466 -> 467 ;
468 [label="sulphates <= 0.405\nentropy = 0.811\nsamples = 4\nvalue = [0, 1, 3]\nclass = High quality", fillcolor="#ab7bee"] ;
466 -> 468 ;
469 [label="entropy = 0.0\nsamples = 3\nvalue = [0, 0, 3]\nclass = High quality", fillcolor="#8139e5"] ;
468 -> 469 ;
470 [label="entropy = 0.0\nsamples = 1\nvalue = [0, 1, 0]\nclass = Standard quality", fillcolor="#39e581"] ;
468 -> 470 ;
471 [label="entropy = 0.0\nsamples = 3\nvalue = [0, 0, 3]\nclass = High quality", fillcolor="#8139e5"] ;
463 -> 471 ;
472 [label="entropy = 0.0\nsamples = 11\nvalue = [0, 11, 0]\nclass = Standard quality", fillcolor="#39e581"] ;
458 -> 472 ;
473 [label="volatile_acidity <= 0.275\nentropy = 0.332\nsamples = 175\nvalue = [7, 166, 2]\nclass = Standard quality", fillcolor="#44e688"] ;
453 -> 473 ;
474 [label="sulphates <= 0.475\nentropy = 0.151\nsamples = 92\nvalue = [0, 90, 2]\nclass = Standard quality", fillcolor="#3de684"] ;
473 -> 474 ;
475 [label="entropy = 0.0\nsamples = 63\nvalue = [0, 63, 0]\nclass = Standard quality", fillcolor="#39e581"] ;
474 -> 475 ;
476 [label="volatile_acidity <= 0.255\nentropy = 0.362\nsamples = 29\nvalue = [0, 27, 2]\nclass = Standard quality", fillcolor="#48e78a"] ;
474 -> 476 ;
477 [label="entropy = 0.0\nsamples = 20\nvalue = [0, 20, 0]\nclass = Standard quality", fillcolor="#39e581"] ;
476 -> 477 ;
478 [label="sulphates <= 0.495\nentropy = 0.764\nsamples = 9\nvalue = [0, 7, 2]\nclass = Standard quality", fillcolor="#72eca5"] ;
476 -> 478 ;
479 [label="chlorides <= 0.057\nentropy = 0.918\nsamples = 3\nvalue = [0, 1, 2]\nclass = High quality", fillcolor="#c09cf2"] ;
478 -> 479 ;
480 [label="entropy = 0.0\nsamples = 2\nvalue = [0, 0, 2]\nclass = High quality", fillcolor="#8139e5"] ;
479 -> 480 ;
481 [label="entropy = 0.0\nsamples = 1\nvalue = [0, 1, 0]\nclass = Standard quality", fillcolor="#39e581"] ;
479 -> 481 ;
482 [label="entropy = 0.0\nsamples = 6\nvalue = [0, 6, 0]\nclass = Standard quality", fillcolor="#39e581"] ;
478 -> 482 ;
483 [label="chlorides <= 0.045\nentropy = 0.417\nsamples = 83\nvalue = [7.0, 76.0, 0.0]\nclass = Standard quality", fillcolor="#4be78d"] ;
473 -> 483 ;
484 [label="total_sulfur_dioxide <= 85.5\nentropy = 0.696\nsamples = 32\nvalue = [6, 26, 0]\nclass = Standard quality", fillcolor="#67eb9e"] ;
483 -> 484 ;
485 [label="citric_acid <= 0.165\nentropy = 1.0\nsamples = 6\nvalue = [3, 3, 0]\nclass = Low quality", fillcolor="#ffffff"] ;
484 -> 485 ;
486 [label="entropy = 0.0\nsamples = 2\nvalue = [0, 2, 0]\nclass = Standard quality", fillcolor="#39e581"] ;
485 -> 486 ;
487 [label="sulphates <= 0.265\nentropy = 0.811\nsamples = 4\nvalue = [3, 1, 0]\nclass = Low quality", fillcolor="#eeab7b"] ;
485 -> 487 ;
488 [label="entropy = 0.0\nsamples = 1\nvalue = [0, 1, 0]\nclass = Standard quality", fillcolor="#39e581"] ;
487 -> 488 ;
489 [label="entropy = 0.0\nsamples = 3\nvalue = [3, 0, 0]\nclass = Low quality", fillcolor="#e58139"] ;
487 -> 489 ;
490 [label="total_sulfur_dioxide <= 213.75\nentropy = 0.516\nsamples = 26\nvalue = [3, 23, 0]\nclass = Standard quality", fillcolor="#53e891"] ;
484 -> 490 ;
491 [label="density <= 0.996\nentropy = 0.402\nsamples = 25\nvalue = [2, 23, 0]\nclass = Standard quality", fillcolor="#4ae78c"] ;
490 -> 491 ;
492 [label="entropy = 0.0\nsamples = 19\nvalue = [0, 19, 0]\nclass = Standard quality", fillcolor="#39e581"] ;
491 -> 492 ;
493 [label="free_sulfur_dioxide <= 30.5\nentropy = 0.918\nsamples = 6\nvalue = [2, 4, 0]\nclass = Standard quality", fillcolor="#9cf2c0"] ;
491 -> 493 ;
494 [label="entropy = 0.0\nsamples = 2\nvalue = [2, 0, 0]\nclass = Low quality", fillcolor="#e58139"] ;
493 -> 494 ;
495 [label="entropy = 0.0\nsamples = 4\nvalue = [0, 4, 0]\nclass = Standard quality", fillcolor="#39e581"] ;
493 -> 495 ;
496 [label="entropy = 0.0\nsamples = 1\nvalue = [1, 0, 0]\nclass = Low quality", fillcolor="#e58139"] ;
490 -> 496 ;
497 [label="sulphates <= 0.495\nentropy = 0.139\nsamples = 51\nvalue = [1, 50, 0]\nclass = Standard quality", fillcolor="#3de684"] ;
483 -> 497 ;
498 [label="entropy = 0.0\nsamples = 48\nvalue = [0, 48, 0]\nclass = Standard quality", fillcolor="#39e581"] ;
497 -> 498 ;
499 [label="residual_sugar <= 2.15\nentropy = 0.918\nsamples = 3\nvalue = [1, 2, 0]\nclass = Standard quality", fillcolor="#9cf2c0"] ;
497 -> 499 ;
500 [label="entropy = 0.0\nsamples = 2\nvalue = [0, 2, 0]\nclass = Standard quality", fillcolor="#39e581"] ;
499 -> 500 ;
501 [label="entropy = 0.0\nsamples = 1\nvalue = [1, 0, 0]\nclass = Low quality", fillcolor="#e58139"] ;
499 -> 501 ;
502 [label="total_sulfur_dioxide <= 172.5\nentropy = 0.681\nsamples = 319\nvalue = [4.0, 270.0, 45.0]\nclass = Standard quality", fillcolor="#5cea98"] ;
452 -> 502 ;
503 [label="pH <= 2.955\nentropy = 0.684\nsamples = 259\nvalue = [1, 215, 43]\nclass = Standard quality", fillcolor="#61ea9b"] ;
502 -> 503 ;
504 [label="entropy = 0.0\nsamples = 3\nvalue = [0, 0, 3]\nclass = High quality", fillcolor="#8139e5"] ;
503 -> 504 ;
505 [label="total_sulfur_dioxide <= 167.5\nentropy = 0.661\nsamples = 256\nvalue = [1, 215, 40]\nclass = Standard quality", fillcolor="#5fea99"] ;
503 -> 505 ;
506 [label="total_sulfur_dioxide <= 18.5\nentropy = 0.624\nsamples = 248\nvalue = [1, 212, 35]\nclass = Standard quality", fillcolor="#5ae996"] ;
505 -> 506 ;
507 [label="entropy = 0.0\nsamples = 2\nvalue = [0, 0, 2]\nclass = High quality", fillcolor="#8139e5"] ;
506 -> 507 ;
508 [label="fixed_acidity <= 7.95\nentropy = 0.606\nsamples = 246\nvalue = [1, 212, 33]\nclass = Standard quality", fillcolor="#59e995"] ;
506 -> 508 ;
509 [label="chlorides <= 0.069\nentropy = 0.483\nsamples = 182\nvalue = [0, 163, 19]\nclass = Standard quality", fillcolor="#50e890"] ;
508 -> 509 ;
510 [label="pH <= 3.385\nentropy = 0.615\nsamples = 125\nvalue = [0, 106, 19]\nclass = Standard quality", fillcolor="#5cea98"] ;
509 -> 510 ;
511 [label="density <= 0.997\nentropy = 0.49\nsamples = 103\nvalue = [0, 92, 11]\nclass = Standard quality", fillcolor="#51e890"] ;
510 -> 511 ;
512 [label="free_sulfur_dioxide <= 16.5\nentropy = 0.38\nsamples = 95\nvalue = [0.0, 88.0, 7.0]\nclass = Standard quality", fillcolor="#49e78b"] ;
511 -> 512 ;
513 [label="density <= 0.993\nentropy = 0.918\nsamples = 12\nvalue = [0, 8, 4]\nclass = Standard quality", fillcolor="#9cf2c0"] ;
512 -> 513 ;
514 [label="fixed_acidity <= 6.15\nentropy = 0.722\nsamples = 5\nvalue = [0, 1, 4]\nclass = High quality", fillcolor="#a06aec"] ;
513 -> 514 ;
515 [label="entropy = 0.0\nsamples = 1\nvalue = [0, 1, 0]\nclass = Standard quality", fillcolor="#39e581"] ;
514 -> 515 ;
516 [label="entropy = 0.0\nsamples = 4\nvalue = [0, 0, 4]\nclass = High quality", fillcolor="#8139e5"] ;
514 -> 516 ;
517 [label="entropy = 0.0\nsamples = 7\nvalue = [0, 7, 0]\nclass = Standard quality", fillcolor="#39e581"] ;
513 -> 517 ;
518 [label="residual_sugar <= 7.05\nentropy = 0.224\nsamples = 83\nvalue = [0, 80, 3]\nclass = Standard quality", fillcolor="#40e686"] ;
512 -> 518 ;
519 [label="entropy = 0.0\nsamples = 50\nvalue = [0, 50, 0]\nclass = Standard quality", fillcolor="#39e581"] ;
518 -> 519 ;
520 [label="fixed_acidity <= 5.8\nentropy = 0.439\nsamples = 33\nvalue = [0, 30, 3]\nclass = Standard quality", fillcolor="#4de88e"] ;
518 -> 520 ;
521 [label="entropy = 0.0\nsamples = 1\nvalue = [0, 0, 1]\nclass = High quality", fillcolor="#8139e5"] ;
520 -> 521 ;
522 [label="citric_acid <= 0.37\nentropy = 0.337\nsamples = 32\nvalue = [0, 30, 2]\nclass = Standard quality", fillcolor="#46e789"] ;
520 -> 522 ;
523 [label="entropy = 0.0\nsamples = 25\nvalue = [0, 25, 0]\nclass = Standard quality", fillcolor="#39e581"] ;
522 -> 523 ;
524 [label="citric_acid <= 0.435\nentropy = 0.863\nsamples = 7\nvalue = [0, 5, 2]\nclass = Standard quality", fillcolor="#88efb3"] ;
522 -> 524 ;
525 [label="free_sulfur_dioxide <= 26.5\nentropy = 0.918\nsamples = 3\nvalue = [0, 1, 2]\nclass = High quality", fillcolor="#c09cf2"] ;
524 -> 525 ;
526 [label="entropy = 0.0\nsamples = 1\nvalue = [0, 1, 0]\nclass = Standard quality", fillcolor="#39e581"] ;
525 -> 526 ;
527 [label="entropy = 0.0\nsamples = 2\nvalue = [0, 0, 2]\nclass = High quality", fillcolor="#8139e5"] ;
525 -> 527 ;
528 [label="entropy = 0.0\nsamples = 4\nvalue = [0, 4, 0]\nclass = Standard quality", fillcolor="#39e581"] ;
524 -> 528 ;
529 [label="density <= 0.997\nentropy = 1.0\nsamples = 8\nvalue = [0, 4, 4]\nclass = Standard quality", fillcolor="#ffffff"] ;
511 -> 529 ;
530 [label="entropy = 0.0\nsamples = 4\nvalue = [0, 0, 4]\nclass = High quality", fillcolor="#8139e5"] ;
529 -> 530 ;
531 [label="entropy = 0.0\nsamples = 4\nvalue = [0, 4, 0]\nclass = Standard quality", fillcolor="#39e581"] ;
529 -> 531 ;
532 [label="residual_sugar <= 1.85\nentropy = 0.946\nsamples = 22\nvalue = [0, 14, 8]\nclass = Standard quality", fillcolor="#aaf4c9"] ;
510 -> 532 ;
533 [label="chlorides <= 0.039\nentropy = 0.961\nsamples = 13\nvalue = [0, 5, 8]\nclass = High quality", fillcolor="#d0b5f5"] ;
532 -> 533 ;
534 [label="entropy = 0.0\nsamples = 3\nvalue = [0, 3, 0]\nclass = Standard quality", fillcolor="#39e581"] ;
533 -> 534 ;
535 [label="free_sulfur_dioxide <= 20.5\nentropy = 0.722\nsamples = 10\nvalue = [0, 2, 8]\nclass = High quality", fillcolor="#a06aec"] ;
533 -> 535 ;
536 [label="citric_acid <= 0.235\nentropy = 1.0\nsamples = 4\nvalue = [0, 2, 2]\nclass = Standard quality", fillcolor="#ffffff"] ;
535 -> 536 ;
537 [label="entropy = 0.0\nsamples = 2\nvalue = [0, 0, 2]\nclass = High quality", fillcolor="#8139e5"] ;
536 -> 537 ;
538 [label="entropy = 0.0\nsamples = 2\nvalue = [0, 2, 0]\nclass = Standard quality", fillcolor="#39e581"] ;
536 -> 538 ;
539 [label="entropy = 0.0\nsamples = 6\nvalue = [0, 0, 6]\nclass = High quality", fillcolor="#8139e5"] ;
535 -> 539 ;
540 [label="entropy = 0.0\nsamples = 9\nvalue = [0, 9, 0]\nclass = Standard quality", fillcolor="#39e581"] ;
532 -> 540 ;
541 [label="entropy = 0.0\nsamples = 57\nvalue = [0, 57, 0]\nclass = Standard quality", fillcolor="#39e581"] ;
509 -> 541 ;
542 [label="alcohol <= 10.35\nentropy = 0.868\nsamples = 64\nvalue = [1, 49, 14]\nclass = Standard quality", fillcolor="#74eda7"] ;
508 -> 542 ;
543 [label="density <= 0.998\nentropy = 0.657\nsamples = 38\nvalue = [1, 33, 4]\nclass = Standard quality", fillcolor="#56e994"] ;
542 -> 543 ;
544 [label="total_sulfur_dioxide <= 47.5\nentropy = 0.912\nsamples = 23\nvalue = [1, 18, 4]\nclass = Standard quality", fillcolor="#6deca2"] ;
543 -> 544 ;
545 [label="entropy = 0.0\nsamples = 10\nvalue = [0, 10, 0]\nclass = Standard quality", fillcolor="#39e581"] ;
544 -> 545 ;
546 [label="chlorides <= 0.069\nentropy = 1.239\nsamples = 13\nvalue = [1, 8, 4]\nclass = Standard quality", fillcolor="#a7f3c7"] ;
544 -> 546 ;
547 [label="pH <= 3.14\nentropy = 0.922\nsamples = 10\nvalue = [1, 8, 1]\nclass = Standard quality", fillcolor="#65eb9d"] ;
546 -> 547 ;
548 [label="total_sulfur_dioxide <= 131.5\nentropy = 1.0\nsamples = 2\nvalue = [1, 0, 1]\nclass = Low quality", fillcolor="#ffffff"] ;
547 -> 548 ;
549 [label="entropy = 0.0\nsamples = 1\nvalue = [1, 0, 0]\nclass = Low quality", fillcolor="#e58139"] ;
548 -> 549 ;
550 [label="entropy = 0.0\nsamples = 1\nvalue = [0, 0, 1]\nclass = High quality", fillcolor="#8139e5"] ;
548 -> 550 ;
551 [label="entropy = 0.0\nsamples = 8\nvalue = [0, 8, 0]\nclass = Standard quality", fillcolor="#39e581"] ;
547 -> 551 ;
552 [label="entropy = 0.0\nsamples = 3\nvalue = [0, 0, 3]\nclass = High quality", fillcolor="#8139e5"] ;
546 -> 552 ;
553 [label="entropy = 0.0\nsamples = 15\nvalue = [0, 15, 0]\nclass = Standard quality", fillcolor="#39e581"] ;
543 -> 553 ;
554 [label="citric_acid <= 0.355\nentropy = 0.961\nsamples = 26\nvalue = [0, 16, 10]\nclass = Standard quality", fillcolor="#b5f5d0"] ;
542 -> 554 ;
555 [label="pH <= 3.195\nentropy = 0.592\nsamples = 7\nvalue = [0, 1, 6]\nclass = High quality", fillcolor="#965ae9"] ;
554 -> 555 ;
556 [label="entropy = 0.0\nsamples = 1\nvalue = [0, 1, 0]\nclass = Standard quality", fillcolor="#39e581"] ;
555 -> 556 ;
557 [label="entropy = 0.0\nsamples = 6\nvalue = [0, 0, 6]\nclass = High quality", fillcolor="#8139e5"] ;
555 -> 557 ;
558 [label="free_sulfur_dioxide <= 17.5\nentropy = 0.742\nsamples = 19\nvalue = [0, 15, 4]\nclass = Standard quality", fillcolor="#6eeca3"] ;
554 -> 558 ;
559 [label="sulphates <= 0.74\nentropy = 0.991\nsamples = 9\nvalue = [0, 5, 4]\nclass = Standard quality", fillcolor="#d7fae6"] ;
558 -> 559 ;
560 [label="density <= 0.997\nentropy = 0.65\nsamples = 6\nvalue = [0, 5, 1]\nclass = Standard quality", fillcolor="#61ea9a"] ;
559 -> 560 ;
561 [label="entropy = 0.0\nsamples = 1\nvalue = [0, 0, 1]\nclass = High quality", fillcolor="#8139e5"] ;
560 -> 561 ;
562 [label="entropy = 0.0\nsamples = 5\nvalue = [0, 5, 0]\nclass = Standard quality", fillcolor="#39e581"] ;
560 -> 562 ;
563 [label="entropy = 0.0\nsamples = 3\nvalue = [0, 0, 3]\nclass = High quality", fillcolor="#8139e5"] ;
559 -> 563 ;
564 [label="entropy = 0.0\nsamples = 10\nvalue = [0, 10, 0]\nclass = Standard quality", fillcolor="#39e581"] ;
558 -> 564 ;
565 [label="chlorides <= 0.047\nentropy = 0.954\nsamples = 8\nvalue = [0, 3, 5]\nclass = High quality", fillcolor="#cdb0f5"] ;
505 -> 565 ;
566 [label="total_sulfur_dioxide <= 168.5\nentropy = 0.811\nsamples = 4\nvalue = [0, 3, 1]\nclass = Standard quality", fillcolor="#7beeab"] ;
565 -> 566 ;
567 [label="entropy = 0.0\nsamples = 1\nvalue = [0, 0, 1]\nclass = High quality", fillcolor="#8139e5"] ;
566 -> 567 ;
568 [label="entropy = 0.0\nsamples = 3\nvalue = [0, 3, 0]\nclass = Standard quality", fillcolor="#39e581"] ;
566 -> 568 ;
569 [label="entropy = 0.0\nsamples = 4\nvalue = [0, 0, 4]\nclass = High quality", fillcolor="#8139e5"] ;
565 -> 569 ;
570 [label="residual_sugar <= 1.3\nentropy = 0.495\nsamples = 60\nvalue = [3, 55, 2]\nclass = Standard quality", fillcolor="#4ae78c"] ;
502 -> 570 ;
571 [label="entropy = 0.0\nsamples = 1\nvalue = [0, 0, 1]\nclass = High quality", fillcolor="#8139e5"] ;
570 -> 571 ;
572 [label="residual_sugar <= 5.5\nentropy = 0.413\nsamples = 59\nvalue = [3, 55, 1]\nclass = Standard quality", fillcolor="#47e78a"] ;
570 -> 572 ;
573 [label="residual_sugar <= 2.8\nentropy = 0.575\nsamples = 22\nvalue = [3, 19, 0]\nclass = Standard quality", fillcolor="#58e995"] ;
572 -> 573 ;
574 [label="entropy = 0.0\nsamples = 14\nvalue = [0, 14, 0]\nclass = Standard quality", fillcolor="#39e581"] ;
573 -> 574 ;
575 [label="fixed_acidity <= 6.85\nentropy = 0.954\nsamples = 8\nvalue = [3, 5, 0]\nclass = Standard quality", fillcolor="#b0f5cd"] ;
573 -> 575 ;
576 [label="residual_sugar <= 3.15\nentropy = 0.65\nsamples = 6\nvalue = [1, 5, 0]\nclass = Standard quality", fillcolor="#61ea9a"] ;
575 -> 576 ;
577 [label="entropy = 0.0\nsamples = 1\nvalue = [1, 0, 0]\nclass = Low quality", fillcolor="#e58139"] ;
576 -> 577 ;
578 [label="entropy = 0.0\nsamples = 5\nvalue = [0, 5, 0]\nclass = Standard quality", fillcolor="#39e581"] ;
576 -> 578 ;
579 [label="entropy = 0.0\nsamples = 2\nvalue = [2, 0, 0]\nclass = Low quality", fillcolor="#e58139"] ;
575 -> 579 ;
580 [label="chlorides <= 0.039\nentropy = 0.179\nsamples = 37\nvalue = [0, 36, 1]\nclass = Standard quality", fillcolor="#3ee684"] ;
572 -> 580 ;
581 [label="pH <= 3.35\nentropy = 0.811\nsamples = 4\nvalue = [0, 3, 1]\nclass = Standard quality", fillcolor="#7beeab"] ;
580 -> 581 ;
582 [label="entropy = 0.0\nsamples = 3\nvalue = [0, 3, 0]\nclass = Standard quality", fillcolor="#39e581"] ;
581 -> 582 ;
583 [label="entropy = 0.0\nsamples = 1\nvalue = [0, 0, 1]\nclass = High quality", fillcolor="#8139e5"] ;
581 -> 583 ;
584 [label="entropy = 0.0\nsamples = 33\nvalue = [0, 33, 0]\nclass = Standard quality", fillcolor="#39e581"] ;
580 -> 584 ;
585 [label="chlorides <= 0.058\nentropy = 0.749\nsamples = 68\nvalue = [9, 57, 2]\nclass = Standard quality", fillcolor="#5eea98"] ;
451 -> 585 ;
586 [label="alcohol <= 10.15\nentropy = 0.845\nsamples = 11\nvalue = [8, 3, 0]\nclass = Low quality", fillcolor="#efb083"] ;
585 -> 586 ;
587 [label="chlorides <= 0.052\nentropy = 0.811\nsamples = 4\nvalue = [1, 3, 0]\nclass = Standard quality", fillcolor="#7beeab"] ;
586 -> 587 ;
588 [label="entropy = 0.0\nsamples = 3\nvalue = [0, 3, 0]\nclass = Standard quality", fillcolor="#39e581"] ;
587 -> 588 ;
589 [label="entropy = 0.0\nsamples = 1\nvalue = [1, 0, 0]\nclass = Low quality", fillcolor="#e58139"] ;
587 -> 589 ;
590 [label="entropy = 0.0\nsamples = 7\nvalue = [7, 0, 0]\nclass = Low quality", fillcolor="#e58139"] ;
586 -> 590 ;
591 [label="residual_sugar <= 1.4\nentropy = 0.346\nsamples = 57\nvalue = [1, 54, 2]\nclass = Standard quality", fillcolor="#44e688"] ;
585 -> 591 ;
592 [label="entropy = 0.0\nsamples = 1\nvalue = [0, 0, 1]\nclass = High quality", fillcolor="#8139e5"] ;
591 -> 592 ;
593 [label="volatile_acidity <= 0.637\nentropy = 0.258\nsamples = 56\nvalue = [1, 54, 1]\nclass = Standard quality", fillcolor="#40e686"] ;
591 -> 593 ;
594 [label="volatile_acidity <= 0.632\nentropy = 0.669\nsamples = 16\nvalue = [1, 14, 1]\nclass = Standard quality", fillcolor="#53e892"] ;
593 -> 594 ;
595 [label="pH <= 3.495\nentropy = 0.353\nsamples = 15\nvalue = [0, 14, 1]\nclass = Standard quality", fillcolor="#47e78a"] ;
594 -> 595 ;
596 [label="entropy = 0.0\nsamples = 14\nvalue = [0, 14, 0]\nclass = Standard quality", fillcolor="#39e581"] ;
595 -> 596 ;
597 [label="entropy = 0.0\nsamples = 1\nvalue = [0, 0, 1]\nclass = High quality", fillcolor="#8139e5"] ;
595 -> 597 ;
598 [label="entropy = 0.0\nsamples = 1\nvalue = [1, 0, 0]\nclass = Low quality", fillcolor="#e58139"] ;
594 -> 598 ;
599 [label="entropy = 0.0\nsamples = 40\nvalue = [0, 40, 0]\nclass = Standard quality", fillcolor="#39e581"] ;
593 -> 599 ;
600 [label="alcohol <= 11.742\nentropy = 1.115\nsamples = 2096\nvalue = [58.0, 1261.0, 777.0]\nclass = Standard quality", fillcolor="#b6f5d1"] ;
0 -> 600 [labeldistance=2.5, labelangle=-45, headlabel="False"] ;
601 [label="citric_acid <= 0.235\nentropy = 1.053\nsamples = 1176\nvalue = [45.0, 818.0, 313.0]\nclass = Standard quality", fillcolor="#8bf0b5"] ;
600 -> 601 ;
602 [label="volatile_acidity <= 0.905\nentropy = 0.909\nsamples = 192\nvalue = [27, 153, 12]\nclass = Standard quality", fillcolor="#68eb9f"] ;
601 -> 602 ;
603 [label="alcohol <= 10.99\nentropy = 0.822\nsamples = 182\nvalue = [19, 151, 12]\nclass = Standard quality", fillcolor="#5fea99"] ;
602 -> 603 ;
604 [label="pH <= 3.57\nentropy = 0.362\nsamples = 70\nvalue = [1, 66, 3]\nclass = Standard quality", fillcolor="#45e789"] ;
603 -> 604 ;
605 [label="total_sulfur_dioxide <= 20.0\nentropy = 0.221\nsamples = 68\nvalue = [1, 66, 1]\nclass = Standard quality", fillcolor="#3fe685"] ;
604 -> 605 ;
606 [label="volatile_acidity <= 0.595\nentropy = 0.817\nsamples = 12\nvalue = [1, 10, 1]\nclass = Standard quality", fillcolor="#5dea98"] ;
605 -> 606 ;
607 [label="free_sulfur_dioxide <= 9.0\nentropy = 1.0\nsamples = 2\nvalue = [1, 0, 1]\nclass = Low quality", fillcolor="#ffffff"] ;
606 -> 607 ;
608 [label="entropy = 0.0\nsamples = 1\nvalue = [1, 0, 0]\nclass = Low quality", fillcolor="#e58139"] ;
607 -> 608 ;
609 [label="entropy = 0.0\nsamples = 1\nvalue = [0, 0, 1]\nclass = High quality", fillcolor="#8139e5"] ;
607 -> 609 ;
610 [label="entropy = 0.0\nsamples = 10\nvalue = [0, 10, 0]\nclass = Standard quality", fillcolor="#39e581"] ;
606 -> 610 ;
611 [label="entropy = 0.0\nsamples = 56\nvalue = [0, 56, 0]\nclass = Standard quality", fillcolor="#39e581"] ;
605 -> 611 ;
612 [label="entropy = 0.0\nsamples = 2\nvalue = [0, 0, 2]\nclass = High quality", fillcolor="#8139e5"] ;
604 -> 612 ;
613 [label="residual_sugar <= 2.95\nentropy = 1.018\nsamples = 112\nvalue = [18, 85, 9]\nclass = Standard quality", fillcolor="#72eca5"] ;
603 -> 613 ;
614 [label="sulphates <= 0.415\nentropy = 0.875\nsamples = 92\nvalue = [8, 75, 9]\nclass = Standard quality", fillcolor="#62ea9b"] ;
613 -> 614 ;
615 [label="free_sulfur_dioxide <= 11.0\nentropy = 1.483\nsamples = 12\nvalue = [5, 5, 2]\nclass = Low quality", fillcolor="#ffffff"] ;
614 -> 615 ;
616 [label="entropy = 0.0\nsamples = 4\nvalue = [4, 0, 0]\nclass = Low quality", fillcolor="#e58139"] ;
615 -> 616 ;
617 [label="fixed_acidity <= 6.2\nentropy = 1.299\nsamples = 8\nvalue = [1, 5, 2]\nclass = Standard quality", fillcolor="#9cf2c0"] ;
615 -> 617 ;
618 [label="pH <= 3.37\nentropy = 0.65\nsamples = 6\nvalue = [0, 5, 1]\nclass = Standard quality", fillcolor="#61ea9a"] ;
617 -> 618 ;
619 [label="entropy = 0.0\nsamples = 4\nvalue = [0, 4, 0]\nclass = Standard quality", fillcolor="#39e581"] ;
618 -> 619 ;
620 [label="volatile_acidity <= 0.29\nentropy = 1.0\nsamples = 2\nvalue = [0, 1, 1]\nclass = Standard quality", fillcolor="#ffffff"] ;
618 -> 620 ;
621 [label="entropy = 0.0\nsamples = 1\nvalue = [0, 0, 1]\nclass = High quality", fillcolor="#8139e5"] ;
620 -> 621 ;
622 [label="entropy = 0.0\nsamples = 1\nvalue = [0, 1, 0]\nclass = Standard quality", fillcolor="#39e581"] ;
620 -> 622 ;
623 [label="pH <= 3.23\nentropy = 1.0\nsamples = 2\nvalue = [1, 0, 1]\nclass = Low quality", fillcolor="#ffffff"] ;
617 -> 623 ;
624 [label="entropy = 0.0\nsamples = 1\nvalue = [0, 0, 1]\nclass = High quality", fillcolor="#8139e5"] ;
623 -> 624 ;
625 [label="entropy = 0.0\nsamples = 1\nvalue = [1, 0, 0]\nclass = Low quality", fillcolor="#e58139"] ;
623 -> 625 ;
626 [label="citric_acid <= 0.125\nentropy = 0.654\nsamples = 80\nvalue = [3, 70, 7]\nclass = Standard quality", fillcolor="#54e992"] ;
614 -> 626 ;
627 [label="free_sulfur_dioxide <= 5.5\nentropy = 0.898\nsamples = 50\nvalue = [3.0, 40.0, 7.0]\nclass = Standard quality", fillcolor="#67eb9e"] ;
626 -> 627 ;
628 [label="residual_sugar <= 1.95\nentropy = 1.0\nsamples = 4\nvalue = [2, 2, 0]\nclass = Low quality", fillcolor="#ffffff"] ;
627 -> 628 ;
629 [label="entropy = 0.0\nsamples = 2\nvalue = [0, 2, 0]\nclass = Standard quality", fillcolor="#39e581"] ;
628 -> 629 ;
630 [label="entropy = 0.0\nsamples = 2\nvalue = [2, 0, 0]\nclass = Low quality", fillcolor="#e58139"] ;
628 -> 630 ;
631 [label="density <= 0.992\nentropy = 0.761\nsamples = 46\nvalue = [1, 38, 7]\nclass = Standard quality", fillcolor="#62ea9b"] ;
627 -> 631 ;
632 [label="density <= 0.991\nentropy = 1.0\nsamples = 2\nvalue = [1, 0, 1]\nclass = Low quality", fillcolor="#ffffff"] ;
631 -> 632 ;
633 [label="entropy = 0.0\nsamples = 1\nvalue = [0, 0, 1]\nclass = High quality", fillcolor="#8139e5"] ;
632 -> 633 ;
634 [label="entropy = 0.0\nsamples = 1\nvalue = [1, 0, 0]\nclass = Low quality", fillcolor="#e58139"] ;
632 -> 634 ;
635 [label="alcohol <= 11.55\nentropy = 0.575\nsamples = 44\nvalue = [0, 38, 6]\nclass = Standard quality", fillcolor="#58e995"] ;
631 -> 635 ;
636 [label="chlorides <= 0.087\nentropy = 0.398\nsamples = 38\nvalue = [0, 35, 3]\nclass = Standard quality", fillcolor="#4ae78c"] ;
635 -> 636 ;
637 [label="entropy = 0.0\nsamples = 29\nvalue = [0, 29, 0]\nclass = Standard quality", fillcolor="#39e581"] ;
636 -> 637 ;
638 [label="density <= 0.995\nentropy = 0.918\nsamples = 9\nvalue = [0, 6, 3]\nclass = Standard quality", fillcolor="#9cf2c0"] ;
636 -> 638 ;
639 [label="entropy = 0.0\nsamples = 3\nvalue = [0, 0, 3]\nclass = High quality", fillcolor="#8139e5"] ;
638 -> 639 ;
640 [label="entropy = 0.0\nsamples = 6\nvalue = [0, 6, 0]\nclass = Standard quality", fillcolor="#39e581"] ;
638 -> 640 ;
641 [label="citric_acid <= 0.045\nentropy = 1.0\nsamples = 6\nvalue = [0, 3, 3]\nclass = Standard quality", fillcolor="#ffffff"] ;
635 -> 641 ;
642 [label="entropy = 0.0\nsamples = 3\nvalue = [0, 0, 3]\nclass = High quality", fillcolor="#8139e5"] ;
641 -> 642 ;
643 [label="entropy = 0.0\nsamples = 3\nvalue = [0, 3, 0]\nclass = Standard quality", fillcolor="#39e581"] ;
641 -> 643 ;
644 [label="entropy = 0.0\nsamples = 30\nvalue = [0, 30, 0]\nclass = Standard quality", fillcolor="#39e581"] ;
626 -> 644 ;
645 [label="total_sulfur_dioxide <= 107.0\nentropy = 1.0\nsamples = 20\nvalue = [10, 10, 0]\nclass = Low quality", fillcolor="#ffffff"] ;
613 -> 645 ;
646 [label="density <= 0.998\nentropy = 0.439\nsamples = 11\nvalue = [10, 1, 0]\nclass = Low quality", fillcolor="#e88e4d"] ;
645 -> 646 ;
647 [label="entropy = 0.0\nsamples = 10\nvalue = [10, 0, 0]\nclass = Low quality", fillcolor="#e58139"] ;
646 -> 647 ;
648 [label="entropy = 0.0\nsamples = 1\nvalue = [0, 1, 0]\nclass = Standard quality", fillcolor="#39e581"] ;
646 -> 648 ;
649 [label="entropy = 0.0\nsamples = 9\nvalue = [0, 9, 0]\nclass = Standard quality", fillcolor="#39e581"] ;
645 -> 649 ;
650 [label="residual_sugar <= 2.05\nentropy = 0.722\nsamples = 10\nvalue = [8, 2, 0]\nclass = Low quality", fillcolor="#eca06a"] ;
602 -> 650 ;
651 [label="sulphates <= 0.52\nentropy = 1.0\nsamples = 4\nvalue = [2, 2, 0]\nclass = Low quality", fillcolor="#ffffff"] ;
650 -> 651 ;
652 [label="entropy = 0.0\nsamples = 2\nvalue = [0, 2, 0]\nclass = Standard quality", fillcolor="#39e581"] ;
651 -> 652 ;
653 [label="entropy = 0.0\nsamples = 2\nvalue = [2, 0, 0]\nclass = Low quality", fillcolor="#e58139"] ;
651 -> 653 ;
654 [label="entropy = 0.0\nsamples = 6\nvalue = [6, 0, 0]\nclass = Low quality", fillcolor="#e58139"] ;
650 -> 654 ;
655 [label="pH <= 3.245\nentropy = 1.01\nsamples = 984\nvalue = [18, 665, 301]\nclass = Standard quality", fillcolor="#95f1bc"] ;
601 -> 655 ;
656 [label="volatile_acidity <= 0.252\nentropy = 0.956\nsamples = 609\nvalue = [13.0, 442.0, 154.0]\nclass = Standard quality", fillcolor="#82efaf"] ;
655 -> 656 ;
657 [label="pH <= 3.185\nentropy = 1.0\nsamples = 317\nvalue = [4, 210, 103]\nclass = Standard quality", fillcolor="#9cf2c0"] ;
656 -> 657 ;
658 [label="fixed_acidity <= 6.75\nentropy = 1.065\nsamples = 236\nvalue = [4, 144, 88]\nclass = Standard quality", fillcolor="#b4f5cf"] ;
657 -> 658 ;
659 [label="free_sulfur_dioxide <= 62.0\nentropy = 0.997\nsamples = 66\nvalue = [0, 31, 35]\nclass = High quality", fillcolor="#f1e8fc"] ;
658 -> 659 ;
660 [label="citric_acid <= 0.275\nentropy = 0.992\nsamples = 56\nvalue = [0, 31, 25]\nclass = Standard quality", fillcolor="#d9fae7"] ;
659 -> 660 ;
661 [label="entropy = 0.0\nsamples = 6\nvalue = [0, 6, 0]\nclass = Standard quality", fillcolor="#39e581"] ;
660 -> 661 ;
662 [label="sulphates <= 0.555\nentropy = 1.0\nsamples = 50\nvalue = [0, 25, 25]\nclass = Standard quality", fillcolor="#ffffff"] ;
660 -> 662 ;
663 [label="fixed_acidity <= 6.45\nentropy = 0.971\nsamples = 40\nvalue = [0, 16, 24]\nclass = High quality", fillcolor="#d5bdf6"] ;
662 -> 663 ;
664 [label="volatile_acidity <= 0.215\nentropy = 0.742\nsamples = 19\nvalue = [0, 4, 15]\nclass = High quality", fillcolor="#a36eec"] ;
663 -> 664 ;
665 [label="volatile_acidity <= 0.175\nentropy = 0.971\nsamples = 10\nvalue = [0, 4, 6]\nclass = High quality", fillcolor="#d5bdf6"] ;
664 -> 665 ;
666 [label="entropy = 0.0\nsamples = 5\nvalue = [0, 0, 5]\nclass = High quality", fillcolor="#8139e5"] ;
665 -> 666 ;
667 [label="fixed_acidity <= 5.85\nentropy = 0.722\nsamples = 5\nvalue = [0, 4, 1]\nclass = Standard quality", fillcolor="#6aeca0"] ;
665 -> 667 ;
668 [label="entropy = 0.0\nsamples = 1\nvalue = [0, 0, 1]\nclass = High quality", fillcolor="#8139e5"] ;
667 -> 668 ;
669 [label="entropy = 0.0\nsamples = 4\nvalue = [0, 4, 0]\nclass = Standard quality", fillcolor="#39e581"] ;
667 -> 669 ;
670 [label="entropy = 0.0\nsamples = 9\nvalue = [0, 0, 9]\nclass = High quality", fillcolor="#8139e5"] ;
664 -> 670 ;
671 [label="citric_acid <= 0.295\nentropy = 0.985\nsamples = 21\nvalue = [0, 12, 9]\nclass = Standard quality", fillcolor="#cef8e0"] ;
663 -> 671 ;
672 [label="sulphates <= 0.4\nentropy = 0.544\nsamples = 8\nvalue = [0, 1, 7]\nclass = High quality", fillcolor="#9355e9"] ;
671 -> 672 ;
673 [label="entropy = 0.0\nsamples = 1\nvalue = [0, 1, 0]\nclass = Standard quality", fillcolor="#39e581"] ;
672 -> 673 ;
674 [label="entropy = 0.0\nsamples = 7\nvalue = [0, 0, 7]\nclass = High quality", fillcolor="#8139e5"] ;
672 -> 674 ;
675 [label="alcohol <= 10.9\nentropy = 0.619\nsamples = 13\nvalue = [0, 11, 2]\nclass = Standard quality", fillcolor="#5dea98"] ;
671 -> 675 ;
676 [label="entropy = 0.0\nsamples = 2\nvalue = [0, 0, 2]\nclass = High quality", fillcolor="#8139e5"] ;
675 -> 676 ;
677 [label="entropy = 0.0\nsamples = 11\nvalue = [0, 11, 0]\nclass = Standard quality", fillcolor="#39e581"] ;
675 -> 677 ;
678 [label="sulphates <= 0.745\nentropy = 0.469\nsamples = 10\nvalue = [0, 9, 1]\nclass = Standard quality", fillcolor="#4fe88f"] ;
662 -> 678 ;
679 [label="entropy = 0.0\nsamples = 8\nvalue = [0, 8, 0]\nclass = Standard quality", fillcolor="#39e581"] ;
678 -> 679 ;
680 [label="citric_acid <= 0.385\nentropy = 1.0\nsamples = 2\nvalue = [0, 1, 1]\nclass = Standard quality", fillcolor="#ffffff"] ;
678 -> 680 ;
681 [label="entropy = 0.0\nsamples = 1\nvalue = [0, 1, 0]\nclass = Standard quality", fillcolor="#39e581"] ;
680 -> 681 ;
682 [label="entropy = 0.0\nsamples = 1\nvalue = [0, 0, 1]\nclass = High quality", fillcolor="#8139e5"] ;
680 -> 682 ;
683 [label="entropy = 0.0\nsamples = 10\nvalue = [0, 0, 10]\nclass = High quality", fillcolor="#8139e5"] ;
659 -> 683 ;
684 [label="total_sulfur_dioxide <= 149.0\nentropy = 1.043\nsamples = 170\nvalue = [4, 113, 53]\nclass = Standard quality", fillcolor="#99f2be"] ;
658 -> 684 ;
685 [label="pH <= 3.135\nentropy = 1.03\nsamples = 148\nvalue = [2, 94, 52]\nclass = Standard quality", fillcolor="#a8f4c8"] ;
684 -> 685 ;
686 [label="free_sulfur_dioxide <= 25.5\nentropy = 0.896\nsamples = 112\nvalue = [0, 77, 35]\nclass = Standard quality", fillcolor="#93f1ba"] ;
685 -> 686 ;
687 [label="free_sulfur_dioxide <= 15.5\nentropy = 0.658\nsamples = 47\nvalue = [0, 39, 8]\nclass = Standard quality", fillcolor="#62ea9b"] ;
686 -> 687 ;
688 [label="fixed_acidity <= 7.45\nentropy = 0.971\nsamples = 20\nvalue = [0, 12, 8]\nclass = Standard quality", fillcolor="#bdf6d5"] ;
687 -> 688 ;
689 [label="free_sulfur_dioxide <= 11.0\nentropy = 0.764\nsamples = 9\nvalue = [0, 2, 7]\nclass = High quality", fillcolor="#a572ec"] ;
688 -> 689 ;
690 [label="entropy = 0.0\nsamples = 2\nvalue = [0, 2, 0]\nclass = Standard quality", fillcolor="#39e581"] ;
689 -> 690 ;
691 [label="entropy = 0.0\nsamples = 7\nvalue = [0, 0, 7]\nclass = High quality", fillcolor="#8139e5"] ;
689 -> 691 ;
692 [label="volatile_acidity <= 0.15\nentropy = 0.439\nsamples = 11\nvalue = [0, 10, 1]\nclass = Standard quality", fillcolor="#4de88e"] ;
688 -> 692 ;
693 [label="entropy = 0.0\nsamples = 1\nvalue = [0, 0, 1]\nclass = High quality", fillcolor="#8139e5"] ;
692 -> 693 ;
694 [label="entropy = 0.0\nsamples = 10\nvalue = [0, 10, 0]\nclass = Standard quality", fillcolor="#39e581"] ;
692 -> 694 ;
695 [label="entropy = 0.0\nsamples = 27\nvalue = [0, 27, 0]\nclass = Standard quality", fillcolor="#39e581"] ;
687 -> 695 ;
696 [label="density <= 0.991\nentropy = 0.979\nsamples = 65\nvalue = [0, 38, 27]\nclass = Standard quality", fillcolor="#c6f7db"] ;
686 -> 696 ;
697 [label="entropy = 0.0\nsamples = 11\nvalue = [0, 11, 0]\nclass = Standard quality", fillcolor="#39e581"] ;
696 -> 697 ;
698 [label="citric_acid <= 0.475\nentropy = 1.0\nsamples = 54\nvalue = [0, 27, 27]\nclass = Standard quality", fillcolor="#ffffff"] ;
696 -> 698 ;
699 [label="pH <= 3.005\nentropy = 0.995\nsamples = 50\nvalue = [0, 27, 23]\nclass = Standard quality", fillcolor="#e2fbec"] ;
698 -> 699 ;
700 [label="residual_sugar <= 1.25\nentropy = 0.65\nsamples = 12\nvalue = [0, 10, 2]\nclass = Standard quality", fillcolor="#61ea9a"] ;
699 -> 700 ;
701 [label="entropy = 0.0\nsamples = 2\nvalue = [0, 0, 2]\nclass = High quality", fillcolor="#8139e5"] ;
700 -> 701 ;
702 [label="entropy = 0.0\nsamples = 10\nvalue = [0, 10, 0]\nclass = Standard quality", fillcolor="#39e581"] ;
700 -> 702 ;
703 [label="volatile_acidity <= 0.145\nentropy = 0.992\nsamples = 38\nvalue = [0.0, 17.0, 21.0]\nclass = High quality", fillcolor="#e7d9fa"] ;
699 -> 703 ;
704 [label="density <= 0.996\nentropy = 0.65\nsamples = 6\nvalue = [0, 5, 1]\nclass = Standard quality", fillcolor="#61ea9a"] ;
703 -> 704 ;
705 [label="entropy = 0.0\nsamples = 5\nvalue = [0, 5, 0]\nclass = Standard quality", fillcolor="#39e581"] ;
704 -> 705 ;
706 [label="entropy = 0.0\nsamples = 1\nvalue = [0, 0, 1]\nclass = High quality", fillcolor="#8139e5"] ;
704 -> 706 ;
707 [label="volatile_acidity <= 0.185\nentropy = 0.954\nsamples = 32\nvalue = [0, 12, 20]\nclass = High quality", fillcolor="#cdb0f5"] ;
703 -> 707 ;
708 [label="entropy = 0.0\nsamples = 7\nvalue = [0, 0, 7]\nclass = High quality", fillcolor="#8139e5"] ;
707 -> 708 ;
709 [label="density <= 0.993\nentropy = 0.999\nsamples = 25\nvalue = [0, 12, 13]\nclass = High quality", fillcolor="#f5f0fd"] ;
707 -> 709 ;
710 [label="residual_sugar <= 2.15\nentropy = 0.837\nsamples = 15\nvalue = [0, 4, 11]\nclass = High quality", fillcolor="#af81ee"] ;
709 -> 710 ;
711 [label="total_sulfur_dioxide <= 121.5\nentropy = 1.0\nsamples = 8\nvalue = [0, 4, 4]\nclass = Standard quality", fillcolor="#ffffff"] ;
710 -> 711 ;
712 [label="pH <= 3.085\nentropy = 0.722\nsamples = 5\nvalue = [0, 4, 1]\nclass = Standard quality", fillcolor="#6aeca0"] ;
711 -> 712 ;
713 [label="entropy = 0.0\nsamples = 1\nvalue = [0, 0, 1]\nclass = High quality", fillcolor="#8139e5"] ;
712 -> 713 ;
714 [label="entropy = 0.0\nsamples = 4\nvalue = [0, 4, 0]\nclass = Standard quality", fillcolor="#39e581"] ;
712 -> 714 ;
715 [label="entropy = 0.0\nsamples = 3\nvalue = [0, 0, 3]\nclass = High quality", fillcolor="#8139e5"] ;
711 -> 715 ;
716 [label="entropy = 0.0\nsamples = 7\nvalue = [0, 0, 7]\nclass = High quality", fillcolor="#8139e5"] ;
710 -> 716 ;
717 [label="total_sulfur_dioxide <= 127.5\nentropy = 0.722\nsamples = 10\nvalue = [0, 8, 2]\nclass = Standard quality", fillcolor="#6aeca0"] ;
709 -> 717 ;
718 [label="total_sulfur_dioxide <= 116.0\nentropy = 1.0\nsamples = 4\nvalue = [0, 2, 2]\nclass = Standard quality", fillcolor="#ffffff"] ;
717 -> 718 ;
719 [label="entropy = 0.0\nsamples = 2\nvalue = [0, 2, 0]\nclass = Standard quality", fillcolor="#39e581"] ;
718 -> 719 ;
720 [label="entropy = 0.0\nsamples = 2\nvalue = [0, 0, 2]\nclass = High quality", fillcolor="#8139e5"] ;
718 -> 720 ;
721 [label="entropy = 0.0\nsamples = 6\nvalue = [0, 6, 0]\nclass = Standard quality", fillcolor="#39e581"] ;
717 -> 721 ;
722 [label="entropy = 0.0\nsamples = 4\nvalue = [0, 0, 4]\nclass = High quality", fillcolor="#8139e5"] ;
698 -> 722 ;
723 [label="residual_sugar <= 1.325\nentropy = 1.254\nsamples = 36\nvalue = [2, 17, 17]\nclass = Standard quality", fillcolor="#ffffff"] ;
685 -> 723 ;
724 [label="free_sulfur_dioxide <= 20.0\nentropy = 0.863\nsamples = 7\nvalue = [2, 0, 5]\nclass = High quality", fillcolor="#b388ef"] ;
723 -> 724 ;
725 [label="entropy = 0.0\nsamples = 2\nvalue = [2, 0, 0]\nclass = Low quality", fillcolor="#e58139"] ;
724 -> 725 ;
726 [label="entropy = 0.0\nsamples = 5\nvalue = [0, 0, 5]\nclass = High quality", fillcolor="#8139e5"] ;
724 -> 726 ;
727 [label="residual_sugar <= 1.55\nentropy = 0.978\nsamples = 29\nvalue = [0, 17, 12]\nclass = Standard quality", fillcolor="#c5f7da"] ;
723 -> 727 ;
728 [label="entropy = 0.0\nsamples = 7\nvalue = [0, 7, 0]\nclass = Standard quality", fillcolor="#39e581"] ;
727 -> 728 ;
729 [label="alcohol <= 11.45\nentropy = 0.994\nsamples = 22\nvalue = [0, 10, 12]\nclass = High quality", fillcolor="#eadefb"] ;
727 -> 729 ;
730 [label="citric_acid <= 0.48\nentropy = 0.874\nsamples = 17\nvalue = [0, 5, 12]\nclass = High quality", fillcolor="#b58bf0"] ;
729 -> 730 ;
731 [label="fixed_acidity <= 7.0\nentropy = 0.722\nsamples = 15\nvalue = [0, 3, 12]\nclass = High quality", fillcolor="#a06aec"] ;
730 -> 731 ;
732 [label="chlorides <= 0.038\nentropy = 0.985\nsamples = 7\nvalue = [0, 3, 4]\nclass = High quality", fillcolor="#e0cef8"] ;
731 -> 732 ;
733 [label="entropy = 0.0\nsamples = 3\nvalue = [0, 0, 3]\nclass = High quality", fillcolor="#8139e5"] ;
732 -> 733 ;
734 [label="total_sulfur_dioxide <= 97.0\nentropy = 0.811\nsamples = 4\nvalue = [0, 3, 1]\nclass = Standard quality", fillcolor="#7beeab"] ;
732 -> 734 ;
735 [label="entropy = 0.0\nsamples = 1\nvalue = [0, 0, 1]\nclass = High quality", fillcolor="#8139e5"] ;
734 -> 735 ;
736 [label="entropy = 0.0\nsamples = 3\nvalue = [0, 3, 0]\nclass = Standard quality", fillcolor="#39e581"] ;
734 -> 736 ;
737 [label="entropy = 0.0\nsamples = 8\nvalue = [0, 0, 8]\nclass = High quality", fillcolor="#8139e5"] ;
731 -> 737 ;
738 [label="entropy = 0.0\nsamples = 2\nvalue = [0, 2, 0]\nclass = Standard quality", fillcolor="#39e581"] ;
730 -> 738 ;
739 [label="entropy = 0.0\nsamples = 5\nvalue = [0, 5, 0]\nclass = Standard quality", fillcolor="#39e581"] ;
729 -> 739 ;
740 [label="total_sulfur_dioxide <= 206.5\nentropy = 0.7\nsamples = 22\nvalue = [2, 19, 1]\nclass = Standard quality", fillcolor="#57e994"] ;
684 -> 740 ;
741 [label="alcohol <= 11.467\nentropy = 0.286\nsamples = 20\nvalue = [1, 19, 0]\nclass = Standard quality", fillcolor="#43e688"] ;
740 -> 741 ;
742 [label="entropy = 0.0\nsamples = 17\nvalue = [0, 17, 0]\nclass = Standard quality", fillcolor="#39e581"] ;
741 -> 742 ;
743 [label="citric_acid <= 0.34\nentropy = 0.918\nsamples = 3\nvalue = [1, 2, 0]\nclass = Standard quality", fillcolor="#9cf2c0"] ;
741 -> 743 ;
744 [label="entropy = 0.0\nsamples = 2\nvalue = [0, 2, 0]\nclass = Standard quality", fillcolor="#39e581"] ;
743 -> 744 ;
745 [label="entropy = 0.0\nsamples = 1\nvalue = [1, 0, 0]\nclass = Low quality", fillcolor="#e58139"] ;
743 -> 745 ;
746 [label="free_sulfur_dioxide <= 92.5\nentropy = 1.0\nsamples = 2\nvalue = [1, 0, 1]\nclass = Low quality", fillcolor="#ffffff"] ;
740 -> 746 ;
747 [label="entropy = 0.0\nsamples = 1\nvalue = [0, 0, 1]\nclass = High quality", fillcolor="#8139e5"] ;
746 -> 747 ;
