digraph Tree {
node [shape=box, style="filled", color="black", fontname="helvetica"] ;
edge [fontname="helvetica"] ;
0 [label="alcohol <= 10.625\nentropy = 0.935\nsamples = 5197\nvalue = [197, 3979, 1021]\nclass = Standard quality", fillcolor="#73eda6"] ;
1 [label="volatile_acidity <= 0.233\nentropy = 0.653\nsamples = 3107\nvalue = [138.0, 2726.0, 243.0]\nclass = Standard quality", fillcolor="#53e892"] ;
0 -> 1 [labeldistance=2.5, labelangle=45, headlabel="True"] ;
2 [label="fixed_acidity <= 8.45\nentropy = 0.812\nsamples = 859\nvalue = [18, 690, 151]\nclass = Standard quality", fillcolor="#68eb9f"] ;
1 -> 2 ;
3 [label="pH <= 3.025\nentropy = 0.766\nsamples = 800\nvalue = [8, 645, 147]\nclass = Standard quality", fillcolor="#68eb9f"] ;
2 -> 3 ;
4 [label="density <= 0.998\nentropy = 1.054\nsamples = 128\nvalue = [2, 79, 47]\nclass = Standard quality", fillcolor="#b1f5cd"] ;
3 -> 4 ;
5 [label="alcohol <= 10.35\nentropy = 0.702\nsamples = 69\nvalue = [2, 59, 8]\nclass = Standard quality", fillcolor="#59e996"] ;
4 -> 5 ;
6 [label="entropy = 0.371\nsamples = 52\nvalue = [1, 49, 2]\nclass = Standard quality", fillcolor="#45e789"] ;
5 -> 6 ;
7 [label="entropy = 1.221\nsamples = 17\nvalue = [1, 10, 6]\nclass = Standard quality", fillcolor="#b7f6d1"] ;
5 -> 7 ;
8 [label="alcohol <= 9.15\nentropy = 0.924\nsamples = 59\nvalue = [0, 20, 39]\nclass = High quality", fillcolor="#c29ff2"] ;
4 -> 8 ;
9 [label="entropy = 0.658\nsamples = 47\nvalue = [0, 8, 39]\nclass = High quality", fillcolor="#9b62ea"] ;
8 -> 9 ;
10 [label="entropy = 0.0\nsamples = 12\nvalue = [0, 12, 0]\nclass = Standard quality", fillcolor="#39e581"] ;
8 -> 10 ;
11 [label="residual_sugar <= 15.575\nentropy = 0.678\nsamples = 672\nvalue = [6, 566, 100]\nclass = Standard quality", fillcolor="#5eea98"] ;
3 -> 11 ;
12 [label="free_sulfur_dioxide <= 39.5\nentropy = 0.72\nsamples = 606\nvalue = [6, 501, 99]\nclass = Standard quality", fillcolor="#62ea9b"] ;
11 -> 12 ;
13 [label="entropy = 0.663\nsamples = 328\nvalue = [6, 282, 40]\nclass = Standard quality", fillcolor="#59e995"] ;
12 -> 13 ;
14 [label="entropy = 0.746\nsamples = 278\nvalue = [0, 219, 59]\nclass = Standard quality", fillcolor="#6eeca3"] ;
12 -> 14 ;
15 [label="fixed_acidity <= 7.7\nentropy = 0.113\nsamples = 66\nvalue = [0, 65, 1]\nclass = Standard quality", fillcolor="#3ce583"] ;
11 -> 15 ;
16 [label="entropy = 0.0\nsamples = 65\nvalue = [0, 65, 0]\nclass = Standard quality", fillcolor="#39e581"] ;
15 -> 16 ;
17 [label="entropy = 0.0\nsamples = 1\nvalue = [0, 0, 1]\nclass = High quality", fillcolor="#8139e5"] ;
15 -> 17 ;
18 [label="density <= 1.0\nentropy = 0.995\nsamples = 59\nvalue = [10, 45, 4]\nclass = Standard quality", fillcolor="#72eca5"] ;
2 -> 18 ;
19 [label="residual_sugar <= 10.9\nentropy = 0.828\nsamples = 53\nvalue = [10, 42, 1]\nclass = Standard quality", fillcolor="#6ceca1"] ;
18 -> 19 ;
20 [label="density <= 0.996\nentropy = 0.68\nsamples = 50\nvalue = [9, 41, 0]\nclass = Standard quality", fillcolor="#64eb9d"] ;
19 -> 20 ;
21 [label="entropy = 0.79\nsamples = 38\nvalue = [9, 29, 0]\nclass = Standard quality", fillcolor="#76eda8"] ;
20 -> 21 ;
22 [label="entropy = 0.0\nsamples = 12\nvalue = [0, 12, 0]\nclass = Standard quality", fillcolor="#39e581"] ;
20 -> 22 ;
23 [label="citric_acid <= 0.275\nentropy = 1.585\nsamples = 3\nvalue = [1, 1, 1]\nclass = Low quality", fillcolor="#ffffff"] ;
19 -> 23 ;
24 [label="entropy = 0.0\nsamples = 1\nvalue = [0, 1, 0]\nclass = Standard quality", fillcolor="#39e581"] ;
23 -> 24 ;
25 [label="entropy = 1.0\nsamples = 2\nvalue = [1, 0, 1]\nclass = Low quality", fillcolor="#ffffff"] ;
23 -> 25 ;
26 [label="residual_sugar <= 14.2\nentropy = 1.0\nsamples = 6\nvalue = [0, 3, 3]\nclass = Standard quality", fillcolor="#ffffff"] ;
18 -> 26 ;
27 [label="entropy = 0.0\nsamples = 3\nvalue = [0, 0, 3]\nclass = High quality", fillcolor="#8139e5"] ;
26 -> 27 ;
28 [label="entropy = 0.0\nsamples = 3\nvalue = [0, 3, 0]\nclass = Standard quality", fillcolor="#39e581"] ;
26 -> 28 ;
29 [label="alcohol <= 9.85\nentropy = 0.544\nsamples = 2248\nvalue = [120, 2036, 92]\nclass = Standard quality", fillcolor="#4de88e"] ;
1 -> 29 ;
30 [label="residual_sugar <= 13.05\nentropy = 0.413\nsamples = 1496\nvalue = [74, 1395, 27]\nclass = Standard quality", fillcolor="#47e78a"] ;
29 -> 30 ;
31 [label="residual_sugar <= 1.625\nentropy = 0.349\nsamples = 1260\nvalue = [67, 1186, 7]\nclass = Standard quality", fillcolor="#45e789"] ;
30 -> 31 ;
32 [label="volatile_acidity <= 0.425\nentropy = 0.535\nsamples = 172\nvalue = [21, 151, 0]\nclass = Standard quality", fillcolor="#55e993"] ;
31 -> 32 ;
33 [label="entropy = 0.362\nsamples = 116\nvalue = [8, 108, 0]\nclass = Standard quality", fillcolor="#48e78a"] ;
32 -> 33 ;
34 [label="entropy = 0.782\nsamples = 56\nvalue = [13, 43, 0]\nclass = Standard quality", fillcolor="#75eda7"] ;
32 -> 34 ;
35 [label="free_sulfur_dioxide <= 27.5\nentropy = 0.308\nsamples = 1088\nvalue = [46, 1035, 7]\nclass = Standard quality", fillcolor="#43e687"] ;
31 -> 35 ;
36 [label="entropy = 0.43\nsamples = 522\nvalue = [33, 483, 6]\nclass = Standard quality", fillcolor="#49e78b"] ;
35 -> 36 ;
37 [label="entropy = 0.176\nsamples = 566\nvalue = [13, 552, 1]\nclass = Standard quality", fillcolor="#3ee684"] ;
35 -> 37 ;
38 [label="total_sulfur_dioxide <= 161.5\nentropy = 0.608\nsamples = 236\nvalue = [7, 209, 20]\nclass = Standard quality", fillcolor="#52e891"] ;
30 -> 38 ;
39 [label="entropy = 0.0\nsamples = 64\nvalue = [0, 64, 0]\nclass = Standard quality", fillcolor="#39e581"] ;
38 -> 39 ;
40 [label="fixed_acidity <= 7.35\nentropy = 0.757\nsamples = 172\nvalue = [7.0, 145.0, 20.0]\nclass = Standard quality", fillcolor="#5cea97"] ;
38 -> 40 ;
41 [label="entropy = 0.827\nsamples = 102\nvalue = [2, 81, 19]\nclass = Standard quality", fillcolor="#6beca1"] ;
40 -> 41 ;
42 [label="entropy = 0.478\nsamples = 70\nvalue = [5, 64, 1]\nclass = Standard quality", fillcolor="#4be78d"] ;
40 -> 42 ;
43 [label="residual_sugar <= 1.85\nentropy = 0.748\nsamples = 752\nvalue = [46, 641, 65]\nclass = Standard quality", fillcolor="#59e995"] ;
29 -> 43 ;
44 [label="sulphates <= 0.465\nentropy = 1.076\nsamples = 211\nvalue = [26.0, 157.0, 28.0]\nclass = Standard quality", fillcolor="#73eda6"] ;
43 -> 44 ;
45 [label="free_sulfur_dioxide <= 25.5\nentropy = 0.554\nsamples = 70\nvalue = [9, 61, 0]\nclass = Standard quality", fillcolor="#56e994"] ;
44 -> 45 ;
46 [label="entropy = 0.779\nsamples = 39\nvalue = [9, 30, 0]\nclass = Standard quality", fillcolor="#74eda7"] ;
45 -> 46 ;
47 [label="entropy = 0.0\nsamples = 31\nvalue = [0, 31, 0]\nclass = Standard quality", fillcolor="#39e581"] ;
45 -> 47 ;
48 [label="total_sulfur_dioxide <= 151.0\nentropy = 1.209\nsamples = 141\nvalue = [17, 96, 28]\nclass = Standard quality", fillcolor="#88efb3"] ;
44 -> 48 ;
49 [label="entropy = 1.207\nsamples = 121\nvalue = [12, 81, 28]\nclass = Standard quality", fillcolor="#8ef0b7"] ;
48 -> 49 ;
50 [label="entropy = 0.811\nsamples = 20\nvalue = [5, 15, 0]\nclass = Standard quality", fillcolor="#7beeab"] ;
48 -> 50 ;
51 [label="sulphates <= 0.635\nentropy = 0.584\nsamples = 541\nvalue = [20, 484, 37]\nclass = Standard quality", fillcolor="#4fe88f"] ;
43 -> 51 ;
52 [label="free_sulfur_dioxide <= 26.5\nentropy = 0.507\nsamples = 397\nvalue = [17, 363, 17]\nclass = Standard quality", fillcolor="#4be78c"] ;
51 -> 52 ;
53 [label="entropy = 0.323\nsamples = 187\nvalue = [11, 176, 0]\nclass = Standard quality", fillcolor="#45e789"] ;
52 -> 53 ;
54 [label="entropy = 0.589\nsamples = 210\nvalue = [6, 187, 17]\nclass = Standard quality", fillcolor="#51e890"] ;
52 -> 54 ;
55 [label="total_sulfur_dioxide <= 55.5\nentropy = 0.723\nsamples = 144\nvalue = [3, 121, 20]\nclass = Standard quality", fillcolor="#5eea98"] ;
51 -> 55 ;
56 [label="entropy = 0.794\nsamples = 71\nvalue = [0, 54, 17]\nclass = Standard quality", fillcolor="#77eda9"] ;
55 -> 56 ;
57 [label="entropy = 0.492\nsamples = 73\nvalue = [3, 67, 3]\nclass = Standard quality", fillcolor="#4ae78c"] ;
55 -> 57 ;
58 [label="alcohol <= 11.575\nentropy = 1.119\nsamples = 2090\nvalue = [59, 1253, 778]\nclass = Standard quality", fillcolor="#b7f6d1"] ;
0 -> 58 [labeldistance=2.5, labelangle=-45, headlabel="False"] ;
59 [label="citric_acid <= 0.225\nentropy = 1.057\nsamples = 1055\nvalue = [41, 732, 282]\nclass = Standard quality", fillcolor="#8cf0b6"] ;
58 -> 59 ;
60 [label="volatile_acidity <= 1.0\nentropy = 0.857\nsamples = 159\nvalue = [22, 129, 8]\nclass = Standard quality", fillcolor="#64eb9d"] ;
59 -> 60 ;
61 [label="free_sulfur_dioxide <= 8.5\nentropy = 0.774\nsamples = 152\nvalue = [16, 128, 8]\nclass = Standard quality", fillcolor="#5cea97"] ;
60 -> 61 ;
62 [label="chlorides <= 0.043\nentropy = 0.877\nsamples = 27\nvalue = [8, 19, 0]\nclass = Standard quality", fillcolor="#8cf0b6"] ;
61 -> 62 ;
63 [label="entropy = 0.0\nsamples = 3\nvalue = [3, 0, 0]\nclass = Low quality", fillcolor="#e58139"] ;
62 -> 63 ;
64 [label="entropy = 0.738\nsamples = 24\nvalue = [5, 19, 0]\nclass = Standard quality", fillcolor="#6deca2"] ;
62 -> 64 ;
65 [label="residual_sugar <= 3.825\nentropy = 0.68\nsamples = 125\nvalue = [8, 109, 8]\nclass = Standard quality", fillcolor="#54e992"] ;
61 -> 65 ;
66 [label="entropy = 0.41\nsamples = 99\nvalue = [1, 92, 6]\nclass = Standard quality", fillcolor="#48e78a"] ;
65 -> 66 ;
67 [label="entropy = 1.195\nsamples = 26\nvalue = [7, 17, 2]\nclass = Standard quality", fillcolor="#97f1bd"] ;
65 -> 67 ;
68 [label="volatile_acidity <= 1.257\nentropy = 0.592\nsamples = 7\nvalue = [6, 1, 0]\nclass = Low quality", fillcolor="#e9965a"] ;
60 -> 68 ;
69 [label="entropy = 0.0\nsamples = 6\nvalue = [6, 0, 0]\nclass = Low quality", fillcolor="#e58139"] ;
68 -> 69 ;
70 [label="entropy = 0.0\nsamples = 1\nvalue = [0, 1, 0]\nclass = Standard quality", fillcolor="#39e581"] ;
68 -> 70 ;
71 [label="fixed_acidity <= 6.95\nentropy = 1.025\nsamples = 896\nvalue = [19, 603, 274]\nclass = Standard quality", fillcolor="#96f1bc"] ;
59 -> 71 ;
72 [label="free_sulfur_dioxide <= 11.5\nentropy = 1.042\nsamples = 426\nvalue = [5, 259, 162]\nclass = Standard quality", fillcolor="#b6f5d1"] ;
71 -> 72 ;
73 [label="residual_sugar <= 5.45\nentropy = 1.081\nsamples = 27\nvalue = [4, 20, 3]\nclass = Standard quality", fillcolor="#75eda7"] ;
72 -> 73 ;
74 [label="entropy = 0.439\nsamples = 22\nvalue = [2, 20, 0]\nclass = Standard quality", fillcolor="#4de88e"] ;
73 -> 74 ;
75 [label="entropy = 0.971\nsamples = 5\nvalue = [2, 0, 3]\nclass = High quality", fillcolor="#d5bdf6"] ;
73 -> 75 ;
76 [label="free_sulfur_dioxide <= 65.0\nentropy = 0.993\nsamples = 399\nvalue = [1, 239, 159]\nclass = Standard quality", fillcolor="#bdf6d5"] ;
72 -> 76 ;
77 [label="entropy = 0.963\nsamples = 387\nvalue = [0, 237, 150]\nclass = Standard quality", fillcolor="#b6f5d1"] ;
76 -> 77 ;
78 [label="entropy = 1.041\nsamples = 12\nvalue = [1, 2, 9]\nclass = High quality", fillcolor="#a774ed"] ;
76 -> 78 ;
79 [label="residual_sugar <= 1.075\nentropy = 0.974\nsamples = 470\nvalue = [14, 344, 112]\nclass = Standard quality", fillcolor="#7feead"] ;
71 -> 79 ;
80 [label="free_sulfur_dioxide <= 6.0\nentropy = 0.672\nsamples = 17\nvalue = [3, 14, 0]\nclass = Standard quality", fillcolor="#63eb9c"] ;
79 -> 80 ;
81 [label="entropy = 0.0\nsamples = 2\nvalue = [2, 0, 0]\nclass = Low quality", fillcolor="#e58139"] ;
80 -> 81 ;
82 [label="entropy = 0.353\nsamples = 15\nvalue = [1, 14, 0]\nclass = Standard quality", fillcolor="#47e78a"] ;
80 -> 82 ;
83 [label="residual_sugar <= 11.25\nentropy = 0.962\nsamples = 453\nvalue = [11, 330, 112]\nclass = Standard quality", fillcolor="#80eeae"] ;
79 -> 83 ;
84 [label="entropy = 0.957\nsamples = 437\nvalue = [9, 316, 112]\nclass = Standard quality", fillcolor="#83efb0"] ;
83 -> 84 ;
85 [label="entropy = 0.544\nsamples = 16\nvalue = [2, 14, 0]\nclass = Standard quality", fillcolor="#55e993"] ;
83 -> 85 ;
86 [label="free_sulfur_dioxide <= 19.5\nentropy = 1.109\nsamples = 1035\nvalue = [18, 521, 496]\nclass = Standard quality", fillcolor="#f6fef9"] ;
58 -> 86 ;
87 [label="sulphates <= 0.685\nentropy = 1.224\nsamples = 338\nvalue = [18, 189, 131]\nclass = Standard quality", fillcolor="#c8f8dc"] ;
86 -> 87 ;
88 [label="chlorides <= 0.057\nentropy = 1.187\nsamples = 245\nvalue = [17, 159, 69]\nclass = Standard quality", fillcolor="#9af2bf"] ;
87 -> 88 ;
89 [label="free_sulfur_dioxide <= 10.5\nentropy = 1.299\nsamples = 167\nvalue = [17.0, 100.0, 50.0]\nclass = Standard quality", fillcolor="#aaf4c9"] ;
88 -> 89 ;
90 [label="entropy = 1.243\nsamples = 50\nvalue = [11, 33, 6]\nclass = Standard quality", fillcolor="#8ff0b8"] ;
89 -> 90 ;
91 [label="entropy = 1.211\nsamples = 117\nvalue = [6, 67, 44]\nclass = Standard quality", fillcolor="#c1f7d7"] ;
89 -> 91 ;
92 [label="total_sulfur_dioxide <= 15.5\nentropy = 0.801\nsamples = 78\nvalue = [0, 59, 19]\nclass = Standard quality", fillcolor="#79edaa"] ;
88 -> 92 ;
93 [label="entropy = 0.988\nsamples = 23\nvalue = [0.0, 10.0, 13.0]\nclass = High quality", fillcolor="#e2d1f9"] ;
92 -> 93 ;
94 [label="entropy = 0.497\nsamples = 55\nvalue = [0, 49, 6]\nclass = Standard quality", fillcolor="#51e890"] ;
92 -> 94 ;
95 [label="fixed_acidity <= 5.85\nentropy = 0.987\nsamples = 93\nvalue = [1, 30, 62]\nclass = High quality", fillcolor="#bf9af2"] ;
87 -> 95 ;
96 [label="entropy = 0.0\nsamples = 15\nvalue = [0, 0, 15]\nclass = High quality", fillcolor="#8139e5"] ;
95 -> 96 ;
97 [label="total_sulfur_dioxide <= 57.0\nentropy = 1.051\nsamples = 78\nvalue = [1, 30, 47]\nclass = High quality", fillcolor="#d2b9f6"] ;
95 -> 97 ;
98 [label="entropy = 0.757\nsamples = 55\nvalue = [0, 12, 43]\nclass = High quality", fillcolor="#a470ec"] ;
97 -> 98 ;
99 [label="entropy = 0.912\nsamples = 23\nvalue = [1, 18, 4]\nclass = Standard quality", fillcolor="#6deca2"] ;
97 -> 99 ;
100 [label="alcohol <= 12.55\nentropy = 0.998\nsamples = 697\nvalue = [0, 332, 365]\nclass = High quality", fillcolor="#f4edfd"] ;
86 -> 100 ;
101 [label="residual_sugar <= 1.225\nentropy = 0.996\nsamples = 468\nvalue = [0, 252, 216]\nclass = Standard quality", fillcolor="#e3fbed"] ;
100 -> 101 ;
102 [label="total_sulfur_dioxide <= 97.0\nentropy = 0.615\nsamples = 46\nvalue = [0, 39, 7]\nclass = Standard quality", fillcolor="#5dea98"] ;
101 -> 102 ;
103 [label="entropy = 0.0\nsamples = 17\nvalue = [0, 17, 0]\nclass = Standard quality", fillcolor="#39e581"] ;
102 -> 103 ;
104 [label="entropy = 0.797\nsamples = 29\nvalue = [0, 22, 7]\nclass = Standard quality", fillcolor="#78eda9"] ;
102 -> 104 ;
105 [label="free_sulfur_dioxide <= 60.5\nentropy = 1.0\nsamples = 422\nvalue = [0.0, 213.0, 209.0]\nclass = Standard quality", fillcolor="#fbfffd"] ;
101 -> 105 ;
106 [label="entropy = 0.999\nsamples = 409\nvalue = [0, 213, 196]\nclass = Standard quality", fillcolor="#effdf5"] ;
105 -> 106 ;
107 [label="entropy = 0.0\nsamples = 13\nvalue = [0, 0, 13]\nclass = High quality", fillcolor="#8139e5"] ;
105 -> 107 ;
108 [label="chlorides <= 0.046\nentropy = 0.933\nsamples = 229\nvalue = [0, 80, 149]\nclass = High quality", fillcolor="#c5a3f3"] ;
100 -> 108 ;
109 [label="total_sulfur_dioxide <= 98.5\nentropy = 0.86\nsamples = 201\nvalue = [0, 57, 144]\nclass = High quality", fillcolor="#b387ef"] ;
108 -> 109 ;
110 [label="entropy = 0.551\nsamples = 47\nvalue = [0.0, 6.0, 41.0]\nclass = High quality", fillcolor="#9356e9"] ;
109 -> 110 ;
111 [label="entropy = 0.916\nsamples = 154\nvalue = [0.0, 51.0, 103.0]\nclass = High quality", fillcolor="#bf9bf2"] ;
109 -> 111 ;
112 [label="total_sulfur_dioxide <= 51.5\nentropy = 0.677\nsamples = 28\nvalue = [0, 23, 5]\nclass = Standard quality", fillcolor="#64eb9c"] ;
108 -> 112 ;
113 [label="entropy = 0.0\nsamples = 2\nvalue = [0, 0, 2]\nclass = High quality", fillcolor="#8139e5"] ;
112 -> 113 ;
114 [label="entropy = 0.516\nsamples = 26\nvalue = [0, 23, 3]\nclass = Standard quality", fillcolor="#53e891"] ;
112 -> 114 ;
}