digraph Tree {
node [shape=box, style="filled", color="black", fontname="helvetica"] ;
edge [fontname="helvetica"] ;
0 [label="alcohol <= 10.625\nentropy = 0.935\nsamples = 5197\nvalue = [197, 3979, 1021]\nclass = Standard quality", fillcolor="#73eda6"] ;
1 [label="volatile_acidity <= 0.233\nentropy = 0.653\nsamples = 3107\nvalue = [138.0, 2726.0, 243.0]\nclass = Standard quality", fillcolor="#53e892"] ;
0 -> 1 [labeldistance=2.5, labelangle=45, headlabel="True"] ;
2 [label="fixed_acidity <= 8.45\nentropy = 0.812\nsamples = 859\nvalue = [18, 690, 151]\nclass = Standard quality", fillcolor="#68eb9f"] ;
1 -> 2 ;
3 [label="pH <= 3.025\nentropy = 0.766\nsamples = 800\nvalue = [8, 645, 147]\nclass = Standard quality", fillcolor="#68eb9f"] ;
2 -> 3 ;
4 [label="entropy = 1.054\nsamples = 128\nvalue = [2, 79, 47]\nclass = Standard quality", fillcolor="#b1f5cd"] ;
3 -> 4 ;
5 [label="entropy = 0.678\nsamples = 672\nvalue = [6, 566, 100]\nclass = Standard quality", fillcolor="#5eea98"] ;
3 -> 5 ;
6 [label="density <= 1.0\nentropy = 0.995\nsamples = 59\nvalue = [10, 45, 4]\nclass = Standard quality", fillcolor="#72eca5"] ;
2 -> 6 ;
7 [label="entropy = 0.828\nsamples = 53\nvalue = [10, 42, 1]\nclass = Standard quality", fillcolor="#6ceca1"] ;
6 -> 7 ;
8 [label="entropy = 1.0\nsamples = 6\nvalue = [0, 3, 3]\nclass = Standard quality", fillcolor="#ffffff"] ;
6 -> 8 ;
9 [label="alcohol <= 9.85\nentropy = 0.544\nsamples = 2248\nvalue = [120, 2036, 92]\nclass = Standard quality", fillcolor="#4de88e"] ;
1 -> 9 ;
10 [label="residual_sugar <= 13.05\nentropy = 0.413\nsamples = 1496\nvalue = [74, 1395, 27]\nclass = Standard quality", fillcolor="#47e78a"] ;
9 -> 10 ;
11 [label="entropy = 0.349\nsamples = 1260\nvalue = [67, 1186, 7]\nclass = Standard quality", fillcolor="#45e789"] ;
10 -> 11 ;
12 [label="entropy = 0.608\nsamples = 236\nvalue = [7, 209, 20]\nclass = Standard quality", fillcolor="#52e891"] ;
10 -> 12 ;
13 [label="residual_sugar <= 1.85\nentropy = 0.748\nsamples = 752\nvalue = [46, 641, 65]\nclass = Standard quality", fillcolor="#59e995"] ;
9 -> 13 ;
14 [label="entropy = 1.076\nsamples = 211\nvalue = [26.0, 157.0, 28.0]\nclass = Standard quality", fillcolor="#73eda6"] ;
13 -> 14 ;
15 [label="entropy = 0.584\nsamples = 541\nvalue = [20, 484, 37]\nclass = Standard quality", fillcolor="#4fe88f"] ;
13 -> 15 ;
16 [label="alcohol <= 11.575\nentropy = 1.119\nsamples = 2090\nvalue = [59, 1253, 778]\nclass = Standard quality", fillcolor="#b7f6d1"] ;
0 -> 16 [labeldistance=2.5, labelangle=-45, headlabel="False"] ;
17 [label="citric_acid <= 0.225\nentropy = 1.057\nsamples = 1055\nvalue = [41, 732, 282]\nclass = Standard quality", fillcolor="#8cf0b6"] ;
16 -> 17 ;
18 [label="volatile_acidity <= 1.0\nentropy = 0.857\nsamples = 159\nvalue = [22, 129, 8]\nclass = Standard quality", fillcolor="#64eb9d"] ;
17 -> 18 ;
19 [label="entropy = 0.774\nsamples = 152\nvalue = [16, 128, 8]\nclass = Standard quality", fillcolor="#5cea97"] ;
18 -> 19 ;
20 [label="entropy = 0.592\nsamples = 7\nvalue = [6, 1, 0]\nclass = Low quality", fillcolor="#e9965a"] ;
18 -> 20 ;
21 [label="fixed_acidity <= 6.95\nentropy = 1.025\nsamples = 896\nvalue = [19, 603, 274]\nclass = Standard quality", fillcolor="#96f1bc"] ;
17 -> 21 ;
22 [label="entropy = 1.042\nsamples = 426\nvalue = [5, 259, 162]\nclass = Standard quality", fillcolor="#b6f5d1"] ;
21 -> 22 ;
23 [label="entropy = 0.974\nsamples = 470\nvalue = [14, 344, 112]\nclass = Standard quality", fillcolor="#7feead"] ;
21 -> 23 ;
24 [label="free_sulfur_dioxide <= 19.5\nentropy = 1.109\nsamples = 1035\nvalue = [18, 521, 496]\nclass = Standard quality", fillcolor="#f6fef9"] ;
16 -> 24 ;
25 [label="sulphates <= 0.685\nentropy = 1.224\nsamples = 338\nvalue = [18, 189, 131]\nclass = Standard quality", fillcolor="#c8f8dc"] ;
24 -> 25 ;
26 [label="entropy = 1.187\nsamples = 245\nvalue = [17, 159, 69]\nclass = Standard quality", fillcolor="#9af2bf"] ;
25 -> 26 ;
27 [label="entropy = 0.987\nsamples = 93\nvalue = [1, 30, 62]\nclass = High quality", fillcolor="#bf9af2"] ;
25 -> 27 ;
28 [label="alcohol <= 12.55\nentropy = 0.998\nsamples = 697\nvalue = [0, 332, 365]\nclass = High quality", fillcolor="#f4edfd"] ;
24 -> 28 ;
29 [label="entropy = 0.996\nsamples = 468\nvalue = [0, 252, 216]\nclass = Standard quality", fillcolor="#e3fbed"] ;
28 -> 29 ;
30 [label="entropy = 0.933\nsamples = 229\nvalue = [0, 80, 149]\nclass = High quality", fillcolor="#c5a3f3"] ;
28 -> 30 ;
}